#include "hls_stream.h"

struct AXIS_IO{
	float data;
	int last;
};


#define INPUT_SIZE 51
#define HIDDEN_SIZE 75
#define NUM_CLASSES 4

typedef hls::stream<AXIS_IO> stream_io;

const float l1_weights[HIDDEN_SIZE][INPUT_SIZE] = {{0.012831428088247776, -0.7816340923309326, -0.5262510776519775, -0.4571513533592224, 0.5714739561080933, 0.22279883921146393, -0.5654205083847046, 0.3822284936904907, 0.24365317821502686, -0.41524001955986023, 0.04526112601161003, 0.29847607016563416, -0.28423577547073364, 0.6285806894302368, 0.19502893090248108, 0.09158539026975632, -0.20866814255714417, -0.46804189682006836, 0.09845989942550659, -0.05048225075006485, -0.015567977912724018, -0.13068096339702606, -0.09310758113861084, -0.029395418241620064, 0.2551528513431549, -0.06504164636135101, 0.03789990395307541, 0.19181032478809357, 0.13169166445732117, 0.2835566997528076, -0.196433424949646, 0.15644486248493195, 0.25412479043006897, 0.06022666022181511, 0.17675291001796722, -0.024768711999058723, -0.008226870559155941, -0.08036113530397415, -0.12897472083568573, 0.03816819190979004, -0.06252074986696243, -0.04144490510225296, -0.15263335406780243, -0.9471495151519775, -0.19268934428691864, -0.13414092361927032, -0.8574095964431763, -0.17186947166919708, -0.09112945944070816, 0.03769572451710701, -0.07415378093719482},{-0.12163721770048141, -0.6086971759796143, -0.25916820764541626, -0.25106707215309143, -0.06947847455739975, 0.036203108727931976, -0.1441328078508377, -0.0251214187592268, -0.06192103400826454, 0.05399402603507042, 0.20525239408016205, 0.1282164603471756, -0.32695555686950684, -0.045483049005270004, 0.15168386697769165, -0.14772702753543854, -0.03144899383187294, -0.2795256972312927, -0.24137677252292633, 0.11495710164308548, -0.08191581815481186, -0.07179640978574753, -0.036716487258672714, 0.012544081546366215, -0.031960565596818924, -0.20259858667850494, -0.19255751371383667, 0.16017015278339386, 0.030431311577558517, 0.14883409440517426, -0.08247066289186478, 0.0007110331789590418, 0.12316182255744934, -0.26970362663269043, -0.03185499832034111, -0.09455516934394836, 0.023357730358839035, -0.10306131094694138, 0.0654706060886383, -0.037465646862983704, 0.02816152200102806, 0.005930472631007433, -0.3976776599884033, 0.1330442577600479, -0.19852334260940552, -0.44510698318481445, 0.13097965717315674, -0.2952186167240143, -0.10497992485761642, -0.010452330112457275, 0.061468761414289474},{-0.0749942734837532, -0.8170872330665588, -0.6179722547531128, -0.43172818422317505, 0.44345954060554504, 0.10611693561077118, -0.3301885426044464, 0.3161422312259674, 0.08885513246059418, -0.36282768845558167, 0.18844641745090485, 0.4435240626335144, -0.5599057078361511, 0.48172447085380554, 0.2780155837535858, -0.02449236623942852, -0.22812308371067047, -0.40198197960853577, -0.07423566281795502, -0.14960674941539764, 0.02114447019994259, -0.15245887637138367, 0.12220191210508347, 0.12667301297187805, 0.2049369215965271, 0.031017817556858063, 0.2163955271244049, 0.22322611510753632, 0.24949276447296143, 0.1721113920211792, -0.18024611473083496, 0.0726875513792038, 0.3360063433647156, -0.11945796757936478, 0.2864125072956085, 0.08121653646230698, -0.18758124113082886, 0.0734124630689621, -0.10558251291513443, -0.06912829726934433, -0.15986454486846924, -0.13002455234527588, -0.1288568079471588, -0.9730660915374756, -0.4944753646850586, -0.19138450920581818, -1.0229164361953735, -0.318433940410614, -0.031102659180760384, -0.026916325092315674, -0.0026870244182646275},{0.09131576120853424, -0.39976966381073, -0.16880758106708527, -0.09369698911905289, 0.025763971731066704, 0.07607139647006989, 0.0013965608086436987, 0.11781779676675797, -0.08254823088645935, -0.10550510883331299, -0.00793955847620964, 0.17126742005348206, 0.036212652921676636, 0.1420837789773941, 0.04492798075079918, 0.08785442262887955, 0.03449438512325287, -0.13794371485710144, -0.04952961206436157, -0.008767124265432358, -0.1674462854862213, -0.09443008154630661, -0.1168728843331337, -0.049609240144491196, -0.03100776858627796, 0.05777176097035408, -0.08052893728017807, 0.09615236520767212, -0.011673168279230595, -0.05405445396900177, 0.03451046347618103, 0.005670228041708469, 0.07207652926445007, -0.07630842179059982, -0.05189919471740723, -0.1261000782251358, 0.04700317978858948, 0.08837675303220749, -0.15455779433250427, -0.06110492721199989, -0.09806431829929352, -0.14919035136699677, 0.509251058101654, -0.22106973826885223, -0.15186750888824463, 0.4685709476470947, -0.2814319133758545, -0.14696526527404785, -0.1858389675617218, -0.03888310119509697, -0.0623277984559536},{-0.2623368501663208, -0.9921687245368958, -0.6510575413703918, -0.12215682119131088, 0.15698879957199097, 0.236602321267128, -0.2740778923034668, 0.29998284578323364, 0.18324339389801025, -0.30358973145484924, 0.15355458855628967, 0.20561368763446808, -0.382806658744812, 0.38711652159690857, 0.24450796842575073, 0.05191771313548088, -0.10324160754680634, -0.4530946910381317, 0.040241602808237076, -0.029690319672226906, 0.03343398869037628, -0.17420463263988495, 0.16021156311035156, 0.20902515947818756, -0.03136904165148735, -0.1263836771249771, 0.07323499023914337, 0.023668138310313225, -0.04021769389510155, 0.29793426394462585, -0.077488474547863, -0.031295452266931534, 0.04052759334445, -0.08273844420909882, -0.06570278108119965, -0.07916517555713654, 0.07067006826400757, -0.000665979809127748, -0.12117115408182144, -0.04636569693684578, -0.06172412633895874, -0.017030708491802216, -0.23381711542606354, -0.44013047218322754, -0.14658375084400177, -0.36960569024086, -0.4195441007614136, 0.0333719328045845, -0.08822201192378998, -0.12868691980838776, 0.07241152971982956},{0.06868565082550049, 0.05106837674975395, -0.05560546740889549, 0.046146854758262634, 0.015649976208806038, -0.06677457690238953, -0.011523803696036339, -0.002701343037188053, 0.03809138387441635, -0.013248753733932972, -0.14569352567195892, -0.11424624174833298, -0.16781078279018402, 0.0750449076294899, 0.022044282406568527, 0.033649466931819916, 0.12133375555276871, 0.0323508195579052, -0.09247283637523651, 0.07101698964834213, 0.06792329251766205, 0.07384969294071198, -0.05360112339258194, 0.1548088937997818, 0.15302667021751404, 0.019773801788687706, 0.091950424015522, -0.06890137493610382, -0.1664891093969345, 0.0032532187178730965, -0.024639762938022614, -0.07919996976852417, 0.07751096040010452, -0.02633756399154663, 0.023197470232844353, -0.027695486322045326, 0.1901872158050537, 0.1173895001411438, 0.1413528472185135, -0.028365373611450195, 0.0033434471115469933, -0.05289430171251297, -0.19305025041103363, -0.07625336945056915, -0.08439259231090546, -0.016504138708114624, -0.0025367806665599346, 0.05564402416348457, 0.17764419317245483, 0.048240777105093, -0.03415903449058533},{-0.12871548533439636, 0.09365672618150711, 0.05568243935704231, 0.060693830251693726, 0.09285231679677963, -0.02296178601682186, 0.07379119843244553, 0.0546611063182354, 0.0122129637748003, -0.02729703113436699, 0.06402518600225449, 0.06770114600658417, 0.11683861911296844, 0.07220416516065598, 0.06245860829949379, 0.10823068022727966, -0.025066297501325607, 0.06804300099611282, 0.22651652991771698, -0.049588244408369064, -0.023073051124811172, -0.0017671962268650532, -0.008702504448592663, -0.17123454809188843, 0.07883680611848831, -0.01901363767683506, -0.07118860632181168, -0.06566037237644196, 0.09147711843252182, 0.13851508498191833, -0.11479759216308594, -0.0881170928478241, -0.09129411727190018, -0.04217240959405899, -0.11686182022094727, -0.1388014256954193, 0.08760242909193039, 0.05244721099734306, -0.06579481065273285, -0.08676109462976456, -0.14627128839492798, -0.10648290812969208, -0.8306052684783936, 0.25125953555107117, -0.07905621081590652, -0.9423928260803223, 0.06588293612003326, -0.16895239055156708, -0.11329909414052963, -0.015571186318993568, -0.04497893527150154},{-0.158493310213089, 0.16002553701400757, 0.007341223303228617, 0.02791566774249077, 0.04939118027687073, 0.15114057064056396, 0.09637554734945297, -0.030755164101719856, 0.04498301073908806, 0.018854789435863495, -0.037221211940050125, 0.012951759621500969, 0.002724149962887168, 0.060841433703899384, -0.03570398688316345, 0.1759846955537796, 0.17461717128753662, 0.01798318885266781, -0.08312132954597473, -0.04493735730648041, -0.10057716071605682, 0.09628967195749283, -0.06498779356479645, 0.008493468165397644, 0.13140769302845, 0.040265873074531555, 0.11927993595600128, -0.06558439135551453, 0.0720810517668724, -0.1450050324201584, 0.053700581192970276, -0.03627128154039383, 0.11234299093484879, -0.014986121095716953, 0.06954497843980789, -0.014455576427280903, 0.01130603440105915, 0.17787238955497742, 0.0985766351222992, 0.07587632536888123, 0.12228170782327652, 0.02942495420575142, -0.05561051890254021, -0.11421940475702286, -0.15103358030319214, 0.07342088222503662, -0.0064790090546011925, -0.04465458542108536, 0.023112256079912186, 0.09028417617082596, 0.06201883777976036},{-0.10761180520057678, -0.7828969955444336, -0.4834924340248108, -0.3417292535305023, -0.058043673634529114, -0.01010646391659975, -0.4843791127204895, 0.028782673180103302, 0.08971142023801804, -0.04472007974982262, 0.1485314965248108, 0.2818649709224701, -0.21202778816223145, 0.2572949528694153, 0.07792925834655762, 0.00782536156475544, -0.14647141098976135, -0.32920074462890625, 0.03213546425104141, -0.06309349834918976, -0.09574984759092331, -0.06800013035535812, 0.05883975699543953, 0.16457770764827728, 0.026649732142686844, 0.094684898853302, 0.11191575229167938, 0.19286568462848663, -0.07586763054132462, 0.33392393589019775, -0.1394214779138565, 0.0717872828245163, -0.021463295444846153, -0.16172094643115997, -0.044691070914268494, -0.011776355095207691, -0.03496791794896126, 0.20256482064723969, 0.031029053032398224, 0.041042622178792953, -0.030902357771992683, 0.1251196563243866, 0.26666519045829773, -0.5325860977172852, -0.14421379566192627, 0.36670804023742676, -0.5243655443191528, -0.2491886466741562, -0.06629777699708939, 0.10631786286830902, 0.051471903920173645},{-0.14640359580516815, 0.10333504527807236, 0.25914278626441956, 0.15775984525680542, 0.038356758654117584, 0.08138145506381989, -0.2037200629711151, -0.03124356083571911, 0.1378319412469864, 0.005140000954270363, -0.11334452033042908, -0.05353572964668274, 0.15847288072109222, -0.07471859455108643, -0.11920754611492157, 0.12455004453659058, 0.18389461934566498, 0.0017622315790504217, -0.14299559593200684, 0.019056489691138268, -0.1355825960636139, -0.011109376326203346, -0.16070589423179626, -0.01814095303416252, 0.031060703098773956, 0.02216951921582222, 0.09425853937864304, -0.21672774851322174, 0.0517498217523098, -0.060339659452438354, -0.003993685822933912, 0.06632760167121887, -0.0783868208527565, 0.20120428502559662, 0.06296729296445847, -0.03655896708369255, 0.16966834664344788, 0.24132108688354492, 0.21791145205497742, -0.0077957999892532825, 0.18878452479839325, 0.26826298236846924, -0.28747618198394775, 0.15109898149967194, 0.08178405463695526, -0.18961696326732635, 0.266306608915329, -0.08792470395565033, 0.015635861083865166, 0.17897255718708038, -0.007118104491382837},{0.09537475556135178, -0.7754042744636536, -0.5102039575576782, 0.0392589271068573, 0.1572112739086151, 0.05385071039199829, -0.13882960379123688, 0.2026757150888443, 0.0889197438955307, -0.33199894428253174, 0.01711498387157917, 0.13794481754302979, -0.10749702900648117, 0.33103516697883606, 0.2141108512878418, 0.0427364818751812, 0.026387199759483337, -0.40900811553001404, 0.2697574496269226, -0.1626519411802292, -0.06341065466403961, -0.16790440678596497, 0.0847545638680458, 0.1986008882522583, 0.17685358226299286, -0.14734312891960144, 0.13137465715408325, 0.1978664994239807, 0.18932466208934784, 0.16210022568702698, -0.0026538767851889133, 0.03897194191813469, 0.23860248923301697, 0.08540742099285126, -0.011970127932727337, 0.033217113465070724, -0.22553566098213196, -0.2474089413881302, -0.21234296262264252, -0.07237939536571503, -0.1667618453502655, -0.2896686792373657, 0.20673298835754395, -0.6518541574478149, -0.21811623871326447, 0.30730441212654114, -0.48805752396583557, 0.016810916364192963, -0.09211021661758423, -0.08238349109888077, -0.2309965193271637},{0.004335676785558462, 0.14199486374855042, 0.03166341036558151, -0.33454975485801697, -0.14987434446811676, 0.004231962841004133, -0.20975305140018463, -0.19007736444473267, -0.1393897533416748, 0.04761159047484398, 0.17582882940769196, 0.04250093176960945, -0.24566935002803802, -0.20587852597236633, -0.1107269823551178, -0.23589712381362915, -0.1520194709300995, 0.02962384559214115, 0.15075170993804932, 0.1774090826511383, -0.13782258331775665, -0.1424652487039566, -0.05922533944249153, -0.229049414396286, -0.028015585616230965, -0.10342724621295929, -0.20849549770355225, 0.0978139266371727, 0.040896471589803696, 0.16659748554229736, -0.1367003470659256, -0.11170133948326111, -0.20213784277439117, -0.1775675117969513, -0.25021636486053467, 0.007089598104357719, 0.14310726523399353, -0.026730690151453018, -0.0056333825923502445, 0.18205763399600983, 0.07626331597566605, 0.2323678731918335, -0.2968209683895111, 0.38874709606170654, 0.02935081534087658, -0.12207254767417908, 0.1867597997188568, 0.05972234904766083, 0.15270906686782837, 0.17248326539993286, 0.1596476137638092},{0.21795158088207245, 0.3626146912574768, 0.3328535556793213, 0.3983079791069031, 0.4037584960460663, 0.5847073197364807, 0.6367106437683105, 0.16341307759284973, -0.005184404086321592, 0.13002274930477142, -0.3585077226161957, -0.402532160282135, 0.2939503788948059, 0.5241712331771851, 0.3809695541858673, 0.044742535799741745, -0.05485738813877106, 0.46432825922966003, -0.2837272882461548, 0.33373358845710754, 0.16925130784511566, -0.29873141646385193, 0.21088969707489014, 0.17715534567832947, -0.2432781308889389, 0.19919387996196747, 0.16119304299354553, 0.19976806640625, 0.014520246535539627, -0.2362721711397171, -0.16030672192573547, 0.06867536902427673, 0.24318912625312805, -0.08748700469732285, 0.058437008410692215, 0.4393586218357086, -0.07462183386087418, 0.005512654315680265, 0.15085101127624512, -0.13481366634368896, -0.11660829186439514, 0.13788454234600067, 0.1632719486951828, 0.03276604413986206, -0.6009299159049988, -0.1052703857421875, 0.08659134060144424, -0.7897651791572571, -0.15295088291168213, -0.08806288242340088, -0.10824611037969589},{0.3716781437397003, 0.8074498176574707, 0.3142395615577698, 0.6368367671966553, -0.20557183027267456, -0.16910606622695923, 0.6028743386268616, -0.0003885766491293907, -0.06482940912246704, 0.1723380982875824, -0.42138078808784485, -0.36413976550102234, 0.5798054337501526, -0.4427984952926636, -0.21512161195278168, 0.16640576720237732, 0.1557687669992447, 0.4499225318431854, -0.18242935836315155, 0.04044473543763161, 0.13961923122406006, 0.07422053813934326, -0.17447476089000702, -0.0952773317694664, -0.17001016438007355, -0.04704124853014946, -0.10558482259511948, -0.07904040813446045, 0.12210499495267868, -0.18836303055286407, -0.027668649330735207, -0.11853176355361938, -0.20874784886837006, 0.08264773339033127, -0.19960692524909973, -0.28689393401145935, -0.13977651298046112, -0.08046740293502808, -0.05262380838394165, -0.23263396322727203, -0.15131112933158875, -0.11719360202550888, 0.2800745666027069, 0.6423953771591187, 0.2792338728904724, 0.27907073497772217, 0.49240750074386597, 0.16274386644363403, -0.24917931854724884, -0.15327411890029907, -0.06792673468589783},{0.07479903101921082, 0.648787260055542, 0.38403013348579407, 0.18159067630767822, -0.25249212980270386, -0.20140348374843597, 0.3417549431324005, -0.27606528997421265, -0.2637770175933838, 0.26880690455436707, -0.08800281584262848, -0.1697104424238205, 0.1732294112443924, -0.33738720417022705, -0.2579858601093292, 0.006513682194054127, 0.05198945477604866, 0.25995051860809326, 0.05009862035512924, -0.07757852971553802, 0.048748698085546494, 0.06446295231580734, -0.19594064354896545, 0.07249052077531815, -0.08775512129068375, 0.0913630798459053, -0.10285831987857819, -0.15722161531448364, -0.10966198146343231, -0.09376081079244614, 0.05908571183681488, -0.17743541300296783, -0.1499239206314087, 0.05688236281275749, -0.08156980574131012, -0.07496348768472672, -0.0003606845857575536, -0.012567572295665741, 0.01757579669356346, -0.029950473457574844, -0.19237010180950165, -0.12186223268508911, 0.725777268409729, 0.29843640327453613, 0.1908363699913025, 0.520231306552887, 0.4579334259033203, 0.05283091589808464, 0.03087734431028366, -0.09181494265794754, -0.007959163747727871},{-0.06950058788061142, -0.6082347631454468, -0.2905227243900299, -0.04273190721869469, 0.08083195239305496, 0.15548473596572876, -0.1102425679564476, 0.08404474705457687, -0.0011968500912189484, 0.0745430439710617, 0.10998765379190445, 0.11693138629198074, -0.012267268262803555, 0.05008276179432869, -0.026354210451245308, -0.039952706545591354, -0.0765218660235405, -0.2750190794467926, -0.05791429802775383, 0.08296770602464676, -0.05347171053290367, -0.05243346840143204, -0.04235914349555969, 0.0651761144399643, -0.08354343473911285, -0.015413803048431873, 0.06257297843694687, 0.009651312604546547, -0.10812031477689743, 0.13534241914749146, -0.010373355820775032, 0.20071184635162354, 0.12498661130666733, 0.038824744522571564, -0.023692047223448753, -0.037021759897470474, 0.005214286968111992, 0.04260114207863808, -0.04876221716403961, 5.355400207918137e-05, -0.018917929381132126, 0.024411361664533615, 0.597100019454956, -0.2065049707889557, -0.13775287568569183, 0.48717352747917175, -0.18964779376983643, 0.08855989575386047, -0.16385114192962646, 0.025682907551527023, -0.14479847252368927},{-0.143138587474823, 0.03649735823273659, 0.12989477813243866, -0.0305654127150774, 0.0307714082300663, 0.069370336830616, 0.10594557970762253, -0.0026509850285947323, 0.11433619260787964, -0.14769399166107178, -0.063014455139637, 0.04154203459620476, 0.04478457570075989, -0.05823483318090439, 0.10594989359378815, 0.023485582321882248, -0.007009977474808693, 0.19878248870372772, 0.004828881472349167, 0.1521623134613037, -0.04155092313885689, 0.028352295979857445, -0.053926773369312286, 0.17091383039951324, 0.03072636015713215, -0.058611564338207245, 0.1399422138929367, 0.0670180395245552, 0.03201336786150932, 0.06370445340871811, 0.022735923528671265, 0.07571962475776672, -0.02321651391685009, 0.15041472017765045, 0.11101151257753372, -0.013247123919427395, 0.03158745914697647, -0.01013712864369154, 0.13327518105506897, 0.0026598332915455103, 0.18043240904808044, 0.1385176181793213, 0.18106471002101898, -0.1907522827386856, -0.12730151414871216, 0.11322178691625595, -0.11297955363988876, -0.05133827030658722, 0.16754595935344696, 0.1597203016281128, 0.05905026197433472},{-0.04975615069270134, 0.026535918936133385, -0.07912032306194305, 0.0020595367532223463, 0.038386665284633636, 0.1964864879846573, 0.1320626437664032, 0.09600172936916351, 0.11065662652254105, 0.03330059349536896, 0.039773501455783844, -0.18642209470272064, 0.03371432051062584, -0.06791942566633224, -0.045644063502550125, 0.01281686406582594, 0.01721895858645439, 0.0018515802221372724, 0.07495293766260147, -0.07489370554685593, 0.047093071043491364, 0.12019005417823792, 0.12535010278224945, -0.016895586624741554, 0.1378173828125, 0.059037946164608, -0.06932038068771362, -0.04359913617372513, -0.19386044144630432, -0.14480535686016083, -0.012424948625266552, -0.05804106220602989, -0.0039012283086776733, -0.017886707559227943, 0.03435616195201874, 0.0932411327958107, 0.09340817481279373, 0.0495375357568264, -0.016450347378849983, 0.05888647213578224, 0.12977103888988495, 0.02779906429350376, 0.030453598126769066, 0.07911017537117004, -0.14435814321041107, -0.06550343334674835, -0.048285894095897675, 0.010027182288467884, 0.08197110891342163, 0.1617141216993332, 0.18036824464797974},{0.24418088793754578, 0.932934582233429, 0.484026700258255, 0.48390814661979675, -0.3168196380138397, -0.0721057802438736, 0.6400419473648071, -0.18118952214717865, -0.10948141664266586, 0.015064413659274578, -0.28870099782943726, -0.4056597650051117, 0.6917703151702881, -0.7333582043647766, -0.2738179564476013, 0.069191575050354, 0.4036804437637329, 0.5435882806777954, 0.08569799363613129, -0.012556418776512146, 0.14444759488105774, -0.005032503977417946, 0.011853172443807125, -0.2981053590774536, -0.27340131998062134, 0.09197848290205002, -0.14487870037555695, -0.061726659536361694, -0.17412959039211273, -0.4018976390361786, 0.20935621857643127, -0.2025015950202942, -0.09859622269868851, 0.08387312293052673, -0.002540391404181719, -0.28124895691871643, -0.1883901059627533, -0.11215166747570038, -0.08788581192493439, -0.06329867988824844, -0.18029546737670898, -0.056940555572509766, 0.3011745512485504, 0.6975633502006531, 0.3389573097229004, 0.28313395380973816, 0.8246317505836487, 0.3276231288909912, -0.11898182332515717, -0.2635284960269928, -0.02851165644824505},{0.4021449089050293, 0.8444128036499023, 0.3862858712673187, 0.6236028075218201, 0.05365385860204697, 0.0027466004248708487, 0.5075399279594421, 0.13008525967597961, -0.10624519735574722, -0.1582416445016861, -0.44239717721939087, -0.315921813249588, 0.6133731007575989, -0.17030033469200134, -0.18194852769374847, 0.028912562876939774, 0.3433714210987091, 0.42145276069641113, -0.012589976191520691, 0.04475659877061844, 0.2939830422401428, 0.06333967298269272, -0.09302619099617004, -0.055006783455610275, -0.054106298834085464, 0.014031822793185711, -0.09914561361074448, -0.21316206455230713, -0.04979889839887619, -0.202248677611351, 0.07724879682064056, -0.005525260232388973, -0.3215957581996918, -0.019746871665120125, -0.2380455881357193, -0.0930313840508461, -0.12304642051458359, -0.3010750114917755, -0.0911220982670784, -0.2663712799549103, -0.08531761914491653, -0.23243676126003265, 0.19253429770469666, 0.5464803576469421, 0.045358672738075256, 0.3460240364074707, 0.65079265832901, -0.0574491061270237, -0.1460733860731125, -0.09240822494029999, -0.11059626191854477},{-0.16794370114803314, -0.053570330142974854, 0.06754924356937408, -0.13777895271778107, 0.01999826170504093, 0.10033565014600754, 0.07495056837797165, 0.0041994331404566765, 0.10520733147859573, -0.04299943149089813, -0.12657399475574493, -0.00395361240953207, 0.08651058375835419, -0.12320008128881454, -0.13057738542556763, 0.04580337554216385, -0.16540780663490295, 0.0640825554728508, 0.5530439019203186, -0.034709393978118896, 0.1687747985124588, 0.08833800256252289, 0.051748715341091156, -0.13641753792762756, -0.08699944615364075, 0.025965619832277298, -0.05487983673810959, 0.08186763525009155, 0.14742177724838257, 0.1391475647687912, -0.12489549070596695, -0.04076622426509857, 0.07610321044921875, -0.16313345730304718, -0.1196858212351799, -0.03198300674557686, 0.057817235589027405, -0.07839762419462204, -0.04795800521969795, -0.05238070711493492, 0.05576539412140846, 0.030228573828935623, -0.8211514949798584, 0.14784929156303406, 0.07492353767156601, -0.9017342925071716, 0.0725669413805008, -0.2385745495557785, -0.058170393109321594, 0.07721755653619766, 0.07083597779273987},{-0.11383206397294998, 0.16524824500083923, 0.11150279641151428, -0.25571689009666443, -0.16741997003555298, -0.16350391507148743, -0.2706823945045471, -0.09205078333616257, -0.10268493741750717, 0.0987933799624443, 0.2055259644985199, 0.13745684921741486, -0.12517881393432617, -0.04014292359352112, -0.13965441286563873, 0.09012827277183533, -0.03961475193500519, -0.08123508840799332, -0.18026642501354218, 0.1304590106010437, -0.21703533828258514, -0.20830272138118744, 0.03718942776322365, -0.15513694286346436, -0.10050569474697113, 0.09357448667287827, 0.05304606631398201, -0.06278780847787857, -0.13790541887283325, 0.10208426415920258, 0.044257622212171555, -0.11802324652671814, 0.02065626159310341, -0.13813257217407227, 0.003151556709781289, -0.1277705878019333, 0.034595418721437454, 0.2518455982208252, 0.03829779103398323, 0.011839443817734718, 0.1317242681980133, 0.13310492038726807, 0.33262142539024353, 0.07461847364902496, -0.21139422059059143, 0.38613954186439514, 0.10417477786540985, -0.01983899250626564, 0.07327203452587128, 0.2305799275636673, 0.11420556902885437},{0.07250017672777176, -0.06294979900121689, 0.038490213453769684, 0.0667034387588501, -0.07560852915048599, 0.06886528432369232, 0.025463616475462914, -0.05676686391234398, 0.08757411688566208, 0.06879349052906036, -0.17314405739307404, 0.06797698885202408, 0.03827055171132088, -0.0007332354434765875, 0.16651776432991028, 0.1064237728714943, -0.06735370308160782, 0.12739212810993195, -0.13272947072982788, 0.04087008163332939, 0.004230274818837643, 0.10952680557966232, -0.05603151395916939, 0.16800375282764435, 0.18709778785705566, 0.16492854058742523, -0.03534303233027458, 0.055596861988306046, -0.04626757279038429, -0.13546310365200043, -0.026188544929027557, -0.03964901715517044, 0.12405180186033249, 0.12633712589740753, 0.03540237993001938, 0.04849028214812279, -0.05421225354075432, 0.18100786209106445, -0.01245830673724413, 0.09858104586601257, 0.1887802630662918, 0.1493217945098877, -0.00401894049718976, -0.05581297352910042, -0.07832543551921844, 0.0910845547914505, 0.1653926819562912, -0.002451468026265502, 0.11972300708293915, 0.1788455843925476, 0.027946753427386284},{-0.07647692412137985, 0.1746518909931183, 0.054918427020311356, 0.03398808091878891, -0.18113698065280914, -0.06134422868490219, -0.2112574279308319, -0.0465923510491848, 0.08312509953975677, 0.009288902394473553, 0.10251107066869736, -0.038662780076265335, -0.10943987220525742, -0.044960957020521164, 0.07096972316503525, 0.09698067605495453, -0.011416932567954063, 0.08910996466875076, 0.0597287155687809, 0.15184423327445984, -0.019882293418049812, 0.09573445469141006, 0.041302818804979324, 0.0037371069192886353, 0.04969470575451851, 0.14884737133979797, 0.08498649299144745, -0.15925760567188263, -0.13357889652252197, -0.05894272401928902, 0.165066197514534, -0.00018593802815303206, 0.006616692524403334, 0.12007079273462296, 0.017552146688103676, 0.1559152752161026, 0.07612844556570053, 0.11044123768806458, -0.022274451330304146, 0.056311167776584625, 0.006982227321714163, 0.13451389968395233, 0.02589566260576248, -0.015505414456129074, 0.1521565318107605, -0.010056191124022007, -0.06233406439423561, 0.022632775828242302, 0.03744817525148392, 0.1735609918832779, 0.00228366581723094},{0.09556149691343307, 0.2986699342727661, 0.03152332454919815, 0.01222127303481102, 0.13437774777412415, 0.04811558127403259, 0.0847083106637001, -0.04171445965766907, 0.03211824968457222, 0.06175631284713745, 0.002472825348377228, -0.025169692933559418, 0.07969162613153458, -0.02450885809957981, 0.0855482965707779, 0.04469883814454079, 0.18062259256839752, 0.1263660490512848, 0.09866715967655182, -0.06308480352163315, 0.1227499470114708, 0.1176677793264389, -0.03336413949728012, -0.038161277770996094, -0.051153846085071564, 0.06860645115375519, -0.06070762872695923, 0.011899452656507492, 0.04558374732732773, -0.04286544770002365, -0.021545980125665665, -0.12427259981632233, 0.015704365447163582, 0.1838608831167221, -0.02707180380821228, 0.07948554307222366, -0.04367239773273468, -0.2611897885799408, -0.14048101007938385, -0.19694893062114716, -0.18404069542884827, -0.10820285230875015, -0.49788784980773926, 0.35803988575935364, 0.24095281958580017, -0.31589275598526, 0.3145503103733063, 0.11608251184225082, -0.22023043036460876, -0.10481073707342148, -0.20758958160877228},{0.03487503528594971, -0.797076940536499, -0.367058128118515, -0.06375829130411148, 0.07806709408760071, 0.01982162334024906, 0.12537840008735657, 0.1993606835603714, 0.06469229608774185, 0.05381861701607704, -0.06558087468147278, 0.12394975125789642, -0.009978675283491611, 0.03490244597196579, 0.10408896207809448, 0.045746710151433945, -0.06879245489835739, -0.28045040369033813, -0.06956154108047485, -0.09739258885383606, 0.17707443237304688, -0.1757616102695465, 0.12248748540878296, 0.1410502791404724, 0.07444536685943604, -0.08364596217870712, -0.07357989251613617, 0.05469163507223129, 0.15841661393642426, 0.16624382138252258, -0.10317037999629974, -0.034340519458055496, 0.05226464197039604, -0.12702877819538116, 0.12865930795669556, -0.03354276716709137, -0.1335391253232956, -0.08559689670801163, -0.13317251205444336, -0.09932304173707962, -0.16999799013137817, -0.1678578406572342, 0.5333873629570007, -0.5255261659622192, -0.1731805056333542, 0.5633946061134338, -0.5434231162071228, -0.13006189465522766, 0.012255338951945305, -0.059333670884370804, -0.07817547023296356},{0.04005814716219902, -0.9042956829071045, -0.624735414981842, 0.02137034945189953, 0.35359612107276917, 0.26756495237350464, 0.033332113176584244, 0.3147624731063843, 0.27106747031211853, -0.33487626910209656, -0.14284628629684448, 0.15050959587097168, -0.12545138597488403, 0.3825041949748993, 0.25952738523483276, 0.049479350447654724, -0.23096327483654022, -0.3181075155735016, -0.028452182188630104, -0.02614985965192318, 0.041470933705568314, -0.15272723138332367, 0.12866657972335815, 0.014897648245096207, -0.07979605346918106, -0.05002647638320923, 0.17814043164253235, 0.12499790638685226, 0.24257738888263702, 0.3118046522140503, -0.05485652759671211, 0.27923285961151123, 0.20701849460601807, -0.11559310555458069, 0.2091483473777771, 0.04000474140048027, -0.12865285575389862, -0.04934456944465637, -0.09923240542411804, -0.2410753071308136, -0.16654503345489502, -0.0825226902961731, 0.06991226226091385, -0.6858929991722107, -0.24349988996982574, 0.008511621505022049, -0.6735767722129822, -0.3259173631668091, -0.25575074553489685, -0.20318274199962616, -0.14202502369880676},{-0.0842258632183075, 0.028985513374209404, 0.05617521330714226, 0.13564619421958923, 0.08474186062812805, -0.05472422018647194, -0.05562490224838257, -0.059443652629852295, -0.004222598392516375, -0.11959853768348694, 0.0070333415642380714, 0.1068928986787796, 0.10096562653779984, -0.10473769903182983, 0.110580675303936, 0.0026326091028749943, -0.09659641236066818, -0.019875872880220413, 0.13337188959121704, 0.04296475648880005, -0.12465015053749084, 0.06500250101089478, 0.13506440818309784, 0.009594946168363094, 0.06150025501847267, 0.13475070893764496, 0.19079828262329102, -0.08981992304325104, -0.1269722431898117, -0.025833889842033386, -0.00408635288476944, -0.07763849943876266, 0.21531367301940918, 0.17343318462371826, -0.04273507744073868, 0.183433398604393, 0.06494899094104767, 0.10128439217805862, 0.03524108976125717, 0.1818791627883911, 0.02312522567808628, 0.08941935747861862, 0.0784572884440422, -0.03082873858511448, 0.07839906960725784, 0.12969505786895752, -0.0286317877471447, 0.19794520735740662, 0.1215076744556427, 0.09947486966848373, 0.015313072130084038},{0.0018751563038676977, 0.17539355158805847, 0.08246596157550812, -0.18171420693397522, -0.22408658266067505, -0.07880201935768127, -0.31317707896232605, -0.15953192114830017, -0.19366800785064697, 0.18618477880954742, 0.27931711077690125, 0.03687527775764465, -0.2491806447505951, -0.2768525183200836, 0.0034692795015871525, -0.17264917492866516, -0.009414554573595524, 0.035683732479810715, -0.11632275581359863, 0.2693125009536743, -0.0499272346496582, -0.1535458266735077, -0.14510826766490936, -0.156976118683815, -0.008200567215681076, 0.05615502968430519, -0.25120845437049866, 0.20144782960414886, 0.13510315120220184, 0.1735103279352188, -0.1745661050081253, -0.08627085387706757, -0.011229370720684528, -0.11576422303915024, -0.22169342637062073, 0.005186545196920633, 0.09572014957666397, 0.0981195792555809, 0.18746313452720642, 0.09752527624368668, 0.18830157816410065, 0.2610836923122406, -0.06864038854837418, 0.1462116539478302, 0.15257865190505981, -0.0727824717760086, 0.2940896451473236, 0.0064099631272256374, 0.15790753066539764, 0.04185987263917923, 0.19098734855651855},{0.29919347167015076, 0.5580217242240906, 0.194171741604805, 0.43663090467453003, 0.11416395753622055, 0.049705587327480316, 0.42613086104393005, 0.1878158301115036, -0.13379764556884766, -0.12411091476678848, -0.17695462703704834, -0.165836900472641, 0.4280295670032501, 0.10343864560127258, -0.12915237247943878, -0.053422536700963974, 0.14005506038665771, 0.06288690865039825, -0.09295933693647385, -0.008620575070381165, 0.21318036317825317, 0.00701832165941596, 0.10242660343647003, -0.1638990193605423, -0.22075264155864716, 0.05431768298149109, 0.07458100467920303, -0.013258243910968304, 0.035280659794807434, -0.11584607511758804, 0.13088007271289825, 0.04926248639822006, -0.0028756530955433846, 0.11406265199184418, -0.06370392441749573, -0.17707927525043488, -0.035776399075984955, -0.2273680418729782, -0.19393105804920197, -0.2945769727230072, -0.14569853246212006, -0.22967787086963654, 0.2988424003124237, 0.06956634670495987, -0.17629852890968323, 0.07571741938591003, 0.004185555502772331, -0.11202498525381088, -0.2355121672153473, -0.3068527281284332, -0.20545849204063416},{0.28575509786605835, 0.6290525197982788, 0.23572872579097748, 0.25286489725112915, -0.17332549393177032, -0.23000313341617584, 0.037941381335258484, -0.158558651804924, -0.08983388543128967, 0.1205318346619606, 0.08223671466112137, 0.09980836510658264, 0.27542683482170105, -0.08912314474582672, -0.2918895184993744, -0.0332665890455246, -0.07910919934511185, 0.20651915669441223, 0.147446870803833, -0.22198525071144104, 0.07982785254716873, -0.07703626900911331, -0.005647873971611261, -0.162591353058815, -0.06801563501358032, -0.011502103880047798, -0.19059309363365173, -0.21487322449684143, -0.061946213245391846, 0.024167213588953018, 0.04216083139181137, -0.0820559710264206, -0.04357262700796127, 0.049631454050540924, -0.12110359966754913, -0.19926002621650696, -0.1032671332359314, 0.007561188191175461, -0.03142756596207619, -0.05688558518886566, -0.13401800394058228, -0.16277503967285156, -0.2744719088077545, 0.5384777784347534, 0.34836480021476746, -0.3816216289997101, 0.49061688780784607, 0.14869582653045654, -0.026681311428546906, -0.16503465175628662, 0.010404891334474087},{0.20434750616550446, 0.4799637496471405, 0.07420986890792847, 0.14278385043144226, -0.0002668196684680879, -0.1366676688194275, 0.12918320298194885, 0.00819806195795536, 0.015356375835835934, -0.054418664425611496, 0.10835754871368408, 0.011220838874578476, 0.06666292250156403, -0.04436342045664787, -0.10851440578699112, 0.14156672358512878, 0.14800462126731873, 0.08717519789934158, -0.2029443085193634, 0.10300804674625397, -0.13595077395439148, -0.05579612776637077, 0.07615556567907333, -0.03549223393201828, -0.048290468752384186, -0.06347496807575226, -0.036426693201065063, -0.10985118895769119, 0.1079096719622612, 0.004885672591626644, -0.1236007809638977, -0.133425772190094, -0.14047831296920776, -0.05714791268110275, -0.15083640813827515, -0.1310880184173584, -0.016852546483278275, 0.0487457700073719, -0.09777917712926865, -0.19663839042186737, -0.05477038398385048, -0.06711499392986298, 0.5486277341842651, 0.010934418067336082, -0.03643455356359482, 0.6375256180763245, -0.017547599971294403, 0.19430860877037048, -0.03856115788221359, -0.037744585424661636, 0.06632070243358612},{-0.22602932155132294, 0.14371079206466675, 0.09728564321994781, -0.4391840994358063, -0.2939101457595825, -0.06287612020969391, -0.40027740597724915, -0.302256315946579, -0.25279825925827026, 0.3190414011478424, 0.1614505499601364, 0.06158238276839256, -0.27485391497612, -0.3632974922657013, -0.18659506738185883, -0.10715515166521072, -0.15824788808822632, -0.046228308230638504, 0.15527679026126862, 0.07883714884519577, -0.3888673782348633, -0.20085081458091736, -0.17350374162197113, -0.21628567576408386, -0.03867510333657265, 0.029074884951114655, -0.09207972884178162, 0.20559760928153992, 0.024906020611524582, 0.048119883984327316, -0.21603429317474365, -0.20485550165176392, -0.22209790349006653, -0.11699232459068298, -0.12528759241104126, -0.11483440548181534, 0.13987700641155243, 0.06570794433355331, 0.2280319780111313, 0.028509534895420074, 0.018107546493411064, 0.08232381939888, 0.02222886122763157, 0.4852721691131592, 0.2310878336429596, -0.06308677792549133, 0.36763596534729004, 0.13865776360034943, 0.21632349491119385, 0.1730264574289322, 0.07709933817386627},{0.0008474324713461101, 0.011539752595126629, -0.0473921038210392, -0.06603123247623444, -0.07061182707548141, -0.19255870580673218, -0.16707006096839905, -0.02685212343931198, -0.17185284197330475, -0.04555226489901543, 0.14903298020362854, 0.0695611983537674, -0.19422416388988495, -0.16523097455501556, 0.0167129747569561, -0.12930721044540405, -0.12277751415967941, -0.1916293054819107, 0.13614694774150848, -0.0702052116394043, -0.019232826307415962, 0.03532448410987854, -0.20443345606327057, -0.003059237729758024, -0.13436195254325867, -0.18566139042377472, -0.11054247617721558, 0.18659059703350067, -0.06948364526033401, 0.08993474394083023, 0.016754919663071632, -0.1221092939376831, 0.02758304588496685, 0.04167982563376427, 0.028529461473226547, -0.04129146412014961, -0.08172548562288284, 0.09882844239473343, 0.043616048991680145, 0.10904014855623245, 0.099004827439785, 0.04068491980433464, -0.35953381657600403, 0.2665993869304657, 0.2601220905780792, -0.3560202419757843, 0.21888397634029388, 0.12333995848894119, -0.0915481224656105, 0.0008814852917566895, 0.11283492296934128},{-0.22430303692817688, -0.8110964298248291, -0.46530818939208984, -0.37283822894096375, -0.018399138003587723, 0.010575491935014725, -0.6054376363754272, 0.12783510982990265, -0.07061981409788132, -0.09855387359857559, 0.29919329285621643, 0.35349997878074646, -0.5892015099525452, 0.1230219155550003, 0.11342601478099823, 0.07371704280376434, -0.09397606551647186, -0.38070303201675415, -0.14941489696502686, 0.05552899092435837, -0.03665050491690636, -0.1534510850906372, -0.016561372205615044, 0.02775787189602852, 0.010561888106167316, 0.04346803203225136, 0.008356098085641861, 0.2800039052963257, 0.04323640838265419, 0.2898764908313751, -0.28640034794807434, -0.03633859381079674, -0.06798142939805984, -0.07666955143213272, 0.03431255742907524, 0.11890257894992828, 0.0054583242163062096, 0.12511934340000153, -0.02502278797328472, -0.014234064146876335, 0.17154452204704285, 0.12410080432891846, -0.08344706147909164, -0.514453649520874, -0.30327296257019043, 0.03844830021262169, -0.6494075655937195, -0.33582356572151184, 0.14678093791007996, -0.017618026584386826, -0.06944364309310913},{-0.029956724494695663, 0.35863566398620605, 0.1916266679763794, 0.028768246993422508, -0.04679015651345253, -0.3049444854259491, -0.051514334976673126, -0.09398002177476883, -0.026441749185323715, 0.1992984563112259, 0.21786507964134216, 0.23553377389907837, -0.06046886369585991, -0.2902586758136749, -0.3073248565196991, -0.17317569255828857, 0.09417009353637695, -0.01180962659418583, 0.20242410898208618, -0.3144038915634155, 0.12737207114696503, 0.15501505136489868, -0.01149324607104063, -0.0710858628153801, -0.023559272289276123, -0.08117649704217911, -0.06194212660193443, 0.0016719872364774346, 0.21878620982170105, 0.20478671789169312, -0.08891990780830383, -0.1957816183567047, -0.16335296630859375, 0.05979916453361511, -0.21629698574543, -0.26969873905181885, 0.08141852170228958, -0.03854170814156532, -0.018801264464855194, 0.03313211351633072, -0.14117661118507385, -0.06025164946913719, -0.3135761618614197, 0.46643492579460144, 0.1601046770811081, -0.29790371656417847, 0.2837623357772827, 0.335346519947052, 0.01948057860136032, -0.011757438071072102, 0.03088119812309742},{-0.1408609300851822, 0.11290106177330017, 0.03179401531815529, -0.19637976586818695, -0.21528008580207825, -0.20293910801410675, -0.36099663376808167, -0.09209614992141724, -0.05076443776488304, 0.26941508054733276, 0.24032875895500183, 0.17081457376480103, -0.27228572964668274, -0.2311328798532486, -0.1586078405380249, -0.05928052216768265, -0.03274732455611229, -0.09666707366704941, -0.18833540380001068, 0.1293325126171112, -0.26497283577919006, -0.09494767338037491, -0.11031942069530487, -0.020410537719726562, -0.11637520045042038, 0.12681634724140167, -0.08477753400802612, 0.015202365815639496, -0.038075581192970276, 0.1486739069223404, -0.1895536631345749, -0.12137974798679352, 0.04528093710541725, 0.059810467064380646, 0.003952046390622854, -0.07062463462352753, -0.0220111683011055, 0.25791415572166443, 0.2560209333896637, 0.19574806094169617, 0.04182066395878792, 0.09034974128007889, 0.4437946677207947, -0.10188025236129761, -0.10827554017305374, 0.4857384264469147, 0.021273022517561913, -0.09884889423847198, 0.13193723559379578, 0.09696006774902344, 0.020234253257513046},{-0.04965302348136902, 0.08811705559492111, 0.21407565474510193, -0.1558941751718521, -0.0678093284368515, -0.07836602628231049, -0.23930294811725616, -0.14257767796516418, -0.1459902822971344, 0.20010530948638916, 0.10528802126646042, 0.2418590784072876, -0.1093500554561615, -0.03387121483683586, -0.07439792156219482, -0.16882219910621643, -0.018671324476599693, -0.1392609030008316, 0.39111363887786865, -0.2002507746219635, -0.09307664632797241, 0.12160498648881912, -0.08174226433038712, -0.11111857742071152, -0.1135326623916626, -0.19980286061763763, 0.04655168205499649, -0.142793208360672, -0.03711279481649399, 0.17743586003780365, 0.05271673575043678, -0.09331392496824265, -0.19924701750278473, -0.03993112966418266, -0.14290381968021393, -0.018587695434689522, -0.061381176114082336, 0.07550385594367981, 0.04196261242032051, -0.07997996360063553, 0.003114446997642517, -0.0938718244433403, -0.48579317331314087, 0.36995941400527954, 0.269147127866745, -0.4778341054916382, 0.2657506763935089, 0.11077651381492615, -0.15456080436706543, -0.04703088104724884, 0.009729335084557533},{-0.011031722649931908, -0.1546754240989685, -0.09214930981397629, -0.040475551038980484, -0.16453327238559723, -0.08284522593021393, -0.20622371137142181, -0.12694956362247467, 0.04066632315516472, 0.1713171899318695, 0.17186477780342102, -0.013741991482675076, -0.1974382847547531, -0.06523633003234863, -0.1395605504512787, -0.15791085362434387, -0.16496433317661285, -0.20129957795143127, -0.21336062252521515, 0.003717662300914526, -0.21880601346492767, -0.07278373092412949, -0.03932569548487663, -0.13062362372875214, -0.10529312491416931, -0.0866890698671341, -0.06334351748228073, 0.10752858221530914, -0.06590733677148819, 0.11231164634227753, -0.009524795226752758, -0.027745576575398445, -0.04295889660716057, -0.16879309713840485, -0.04302631691098213, 0.0824865847826004, 0.15044455230236053, 0.17077487707138062, 0.1108943298459053, 0.15853947401046753, 0.12516969442367554, -0.01540704257786274, 0.5991755723953247, -0.23764877021312714, -0.14156877994537354, 0.44998684525489807, -0.23330184817314148, 0.049693550914525986, 0.060562364757061005, -0.060754165053367615, -0.07797397673130035},{0.129252627491951, -0.47865501046180725, -0.14478972554206848, 0.1729045957326889, 0.027954062446951866, 0.08736038953065872, 0.12958000600337982, 0.13232505321502686, 0.018934141844511032, -0.05474366247653961, -0.024208305403590202, 0.0018366114236414433, 0.13715380430221558, 0.24778738617897034, 0.023185528814792633, 0.14165754616260529, 0.0039000140968710184, -0.22103402018547058, -0.10311602801084518, -0.23696132004261017, 0.20388638973236084, -0.02384004183113575, 0.006241191644221544, 0.14886347949504852, 0.05910144001245499, -0.0654018372297287, 0.1439976841211319, 0.1615944504737854, 0.14382465183734894, -0.03678309917449951, -0.09447220712900162, 0.0018849294865503907, -0.05679963529109955, -0.05148280784487724, 0.0440521277487278, 0.031268589198589325, -0.13135449588298798, -0.189087375998497, -0.2203962206840515, -0.11313679069280624, -0.230563685297966, -0.07872258871793747, 0.5098570585250854, -0.4531306326389313, -0.05893087387084961, 0.45806556940078735, -0.24168770015239716, 0.05585798621177673, -0.21022337675094604, -0.08112984895706177, -0.05950039625167847},{0.19887672364711761, 0.8857231140136719, 0.5759881138801575, 0.33612459897994995, -0.24246573448181152, -0.154594287276268, 0.5406314730644226, -0.17613238096237183, -0.05479201301932335, 0.2629201412200928, -0.14414621889591217, -0.1970830112695694, 0.3676561713218689, -0.5244192481040955, -0.08991961926221848, 0.05388824641704559, 0.2689064145088196, 0.4697534739971161, -0.023829499259591103, -0.1449212282896042, 0.2149093896150589, 0.22653602063655853, -0.0428398996591568, 0.04999378323554993, -0.03782083839178085, 0.002406998071819544, -0.15161707997322083, -0.04360950365662575, -0.037002284079790115, -0.3925313949584961, 0.1240917220711708, -0.02076585590839386, -0.12727855145931244, 0.09028524905443192, -0.014614713378250599, -0.004332917742431164, -0.08195461332798004, -0.12760724127292633, -0.05659494921565056, -0.2013765126466751, -0.012376956641674042, -0.025167889893054962, 0.1712026447057724, 0.6719386577606201, 0.28931450843811035, 0.12014327198266983, 0.7302296757698059, 0.2836003303527832, -0.21387039124965668, -0.21404409408569336, -0.062131788581609726},{-0.1291360706090927, -0.5600759983062744, -0.45588192343711853, -0.2683682441711426, -0.0855129137635231, -0.09721550345420837, -0.28978490829467773, 0.008107675239443779, -0.07423814386129379, 0.1586659699678421, 0.13964609801769257, 0.059875622391700745, -0.16696783900260925, 0.15947122871875763, -0.0563427209854126, -0.10883494466543198, -0.22488106787204742, -0.2675521969795227, -0.09056705981492996, 0.045413557440042496, -0.2317894697189331, -0.0046294680796563625, 0.06403021514415741, 0.1398342102766037, -0.003933224361389875, -0.0313434861600399, -0.06792287528514862, 0.2821136713027954, -0.043349768966436386, 0.1388816386461258, -0.035052817314863205, 0.06133650988340378, -0.08757273852825165, -0.11466027051210403, -0.08448430150747299, -0.06956935673952103, 0.005440372973680496, 0.12961101531982422, 0.1704752892255783, 0.16467146575450897, 0.022533487528562546, -0.03551846370100975, 0.4402529299259186, -0.3524685800075531, -0.15816330909729004, 0.42915940284729004, -0.26849785447120667, -0.14872923493385315, 0.02054048515856266, 0.15494932234287262, 0.1291237622499466},{-0.07505343109369278, 0.18777281045913696, -0.017840676009655, 0.080289326608181, 0.03994187340140343, 0.15188683569431305, 0.08191042393445969, -0.025182638317346573, -0.043173085898160934, -0.042570892721414566, 0.021499285474419594, 0.0650814026594162, -0.02931363135576248, 0.1672871708869934, -0.07196503132581711, -0.06513945013284683, 0.054050326347351074, 0.1301194727420807, 0.010146773420274258, 0.07198148965835571, -0.07197155058383942, 0.1207633689045906, 0.1662822812795639, -0.06737477332353592, 0.08315887302160263, 0.06745384633541107, -0.01611481048166752, -0.025991925969719887, -0.05127032473683357, -0.1181684285402298, 0.1432115137577057, 0.09057080000638962, -0.02268998883664608, 0.13865844905376434, 0.15904322266578674, 0.015240160748362541, 0.11056319624185562, 0.07493641972541809, 0.07501303404569626, 0.07362443208694458, 0.0933789610862732, 0.15280231833457947, 0.047970667481422424, -0.05484722927212715, 0.05985046923160553, 0.001838619471527636, -0.016040146350860596, -0.08760620653629303, 0.0936049222946167, 0.07853900641202927, -0.06535958498716354},{-0.17339235544204712, -0.8171355128288269, -0.34273913502693176, -0.2784568965435028, 0.13940896093845367, 0.014421792700886726, -0.26198050379753113, 0.2053649127483368, 0.026170028373599052, -0.10506311804056168, 0.06087486073374748, 0.21822726726531982, -0.3124573528766632, 0.3358533978462219, -0.008107047528028488, -0.1295085847377777, -0.16152386367321014, -0.3639034628868103, 0.007374985609203577, 0.03746189549565315, -0.18426263332366943, -0.05091601237654686, -0.003336073597893119, 0.05727366730570793, 0.11234382539987564, -0.03250777721405029, -0.0406915545463562, 0.10616900026798248, 0.044676393270492554, 0.013071257621049881, -0.15323849022388458, 0.018414033576846123, 0.05221705511212349, -0.09178698062896729, 0.1906794309616089, 0.006283964961767197, -0.017742376774549484, 0.12204868346452713, -0.07017030566930771, 0.02440795488655567, 0.1412099003791809, 0.017553729936480522, 0.32195764780044556, -0.39562350511550903, -0.18099448084831238, 0.281954824924469, -0.4746420085430145, -0.07396902143955231, -0.041831452399492264, -0.03741118684411049, -0.10182975232601166},{0.02247953973710537, 0.12761995196342468, 0.09193891286849976, 0.042211148887872696, 0.15038351714611053, 0.14821840822696686, -0.003497079946100712, 0.04081665351986885, 0.09877948462963104, -0.10928286612033844, -0.05112088471651077, -0.19991499185562134, -0.043426502496004105, -0.013347631320357323, -0.04165532812476158, 0.18928447365760803, 0.19344764947891235, -0.020775040611624718, -0.03372516110539436, 0.024751683697104454, -0.15546414256095886, 0.028206322342157364, 0.13674093782901764, 0.19247937202453613, 0.20959587395191193, 0.1439216136932373, 0.18735024333000183, -0.0119447847828269, -0.021983478218317032, -0.18409468233585358, -0.005781181156635284, 0.095646433532238, 0.13176794350147247, 0.002245961921289563, -0.025863178074359894, -0.045324601233005524, -0.01111000869423151, 0.045571401715278625, 0.017268795520067215, 0.05667857825756073, 0.17229628562927246, 0.06118772551417351, -0.029586393386125565, -0.10809070616960526, -0.0482444129884243, -0.027771754190325737, -0.1474313735961914, -0.013038966804742813, 0.10974793136119843, 0.23365294933319092, 0.09734645485877991},{0.07367748767137527, -0.07872795313596725, 0.1421891450881958, -0.02575359120965004, 0.003437930950894952, -0.14099538326263428, -0.09032193571329117, 0.05521584674715996, 0.05365858972072601, 0.060682013630867004, -0.11519535630941391, 0.012702753767371178, -0.10989291965961456, 0.042074162513017654, -0.20435839891433716, -0.17450907826423645, -0.15005767345428467, 0.05466108396649361, 0.484273761510849, -0.08772984147071838, 0.18315593898296356, 0.12331359833478928, -0.15213552117347717, -0.022055093199014664, -0.13046401739120483, -0.09065113216638565, 0.05628746747970581, 0.006370622664690018, 0.11623575538396835, 0.20903043448925018, 0.10490354895591736, 0.016130346804857254, -0.13367769122123718, -0.03214417025446892, -0.06696359813213348, -0.08008363097906113, -0.05065200850367546, -0.006628747563809156, -0.12681691348552704, 0.041165657341480255, -0.05331234633922577, -0.12329916656017303, -0.5404271483421326, 0.12542584538459778, 0.22947417199611664, -0.6362994909286499, 0.2369292974472046, 0.08613476902246475, -0.17496784031391144, -0.04269791394472122, 0.06645959615707397},{0.006279808469116688, -0.18244275450706482, -0.07628650218248367, -0.0823245644569397, -0.12485039979219437, -0.0005669943057000637, 0.05048321187496185, -0.014223543927073479, -0.015040276572108269, -0.06394603848457336, 0.12263944000005722, -0.043454043567180634, -0.06178029254078865, -0.05796005204319954, 0.045815061777830124, 0.043078530579805374, -0.13502371311187744, -0.051752008497714996, 0.42697957158088684, 0.0359826385974884, 0.23144228756427765, 0.02573937550187111, -0.01645597256720066, -0.017832402139902115, 0.10989659279584885, -0.03709776699542999, 0.04874162748456001, -0.018686989322304726, 0.14767441153526306, 0.01611996255815029, -0.126957967877388, -0.11596846580505371, 0.06888020038604736, 0.0917414128780365, -0.07142914831638336, -0.16618786752223969, 0.057400383055210114, -0.13840803503990173, -0.058525893837213516, 0.13936258852481842, 0.10273393243551254, 0.1250903308391571, -0.5217074155807495, 0.1571815013885498, 0.20194514095783234, -0.43869906663894653, 0.2025163620710373, 0.02186344750225544, 0.031840384006500244, 0.06689193099737167, 0.1075262650847435},{-0.04065226390957832, 0.008627562783658504, 0.13813477754592896, -0.02964508906006813, -0.12106163054704666, -0.1694338172674179, -0.1103598102927208, -0.2068769633769989, 0.08539658039808273, -0.020834611728787422, -0.02808503434062004, 0.004469532053917646, -0.14442895352840424, -0.009323140606284142, 0.02540767937898636, 0.024432525038719177, -0.1440306007862091, -0.09785574674606323, 0.09379465132951736, 0.12021087855100632, 0.04826552793383598, 0.04238813370466232, 0.07233288884162903, 0.001082266098819673, 0.06955752521753311, 0.027183232828974724, -0.0067735519260168076, 0.10563772171735764, 0.11247844994068146, 0.1701553612947464, -0.022270066663622856, -0.07773027569055557, -0.1260530799627304, -0.16924792528152466, -0.02356533706188202, -0.1920819729566574, 0.018909042701125145, 0.05644749850034714, 0.07407358288764954, 0.08738472312688828, -0.01667417213320732, 0.022287601605057716, -0.5212098360061646, 0.2604483664035797, 0.22638554871082306, -0.42143216729164124, 0.24706552922725677, 0.04731856286525726, 0.1018901988863945, -0.024712568148970604, -0.011707330122590065},{0.07813449203968048, -0.9059358835220337, -0.5696391463279724, -0.0506582148373127, 0.2411658614873886, 0.01307681854814291, 0.10293681174516678, 0.32652488350868225, 0.13994909822940826, -0.31934699416160583, -0.12617725133895874, 0.27341920137405396, 0.04200708866119385, 0.4784402847290039, 0.11206810921430588, 0.07482974976301193, -0.119145967066288, -0.46164125204086304, -0.17841742932796478, -0.2366698533296585, 0.16233515739440918, -0.005987415090203285, -0.0157006923109293, 0.05416233092546463, 0.035774435847997665, -0.1194629892706871, 0.019850337877869606, 0.09110112488269806, 0.11333617568016052, 0.23858541250228882, -0.13088764250278473, 0.2364984154701233, 0.10199350118637085, -0.07667668163776398, 0.19702036678791046, 0.15393966436386108, -0.16381369531154633, -0.17683754861354828, -0.20035192370414734, -0.1928592175245285, -0.02089923806488514, -0.3006402850151062, 0.00652361661195755, -0.7197719216346741, -0.41298773884773254, 0.04497295245528221, -0.8121185898780823, -0.3276118338108063, -0.03304671496152878, -0.1769416183233261, -0.2844699025154114},{-0.3458826243877411, 0.20965038239955902, 0.10268048197031021, 0.01634545624256134, 0.14190922677516937, 0.12672971189022064, 0.01845281384885311, 0.13019871711730957, 0.15975028276443481, -0.2659567594528198, 0.11805523931980133, 0.012784112244844437, 0.11583709716796875, -0.08895421773195267, 0.041324395686388016, -0.13493213057518005, -0.0636000856757164, -0.07359132915735245, 0.04047781601548195, -0.3707137405872345, 0.5180965065956116, -0.042824532836675644, -0.08029215782880783, -0.10235319286584854, 0.051794521510601044, 0.004153265617787838, 0.1068563237786293, 0.10311510413885117, -0.01146286353468895, 0.08864905685186386, -0.00498976232483983, 0.08194306492805481, -0.05567071959376335, -0.1306658834218979, -0.01667274534702301, -0.10932470858097076, 0.23556524515151978, -0.10833098739385605, 0.12189239263534546, 0.07239668071269989, 0.12022167444229126, 0.15641893446445465, 0.09589944034814835, 0.21429629623889923, 0.3256407082080841, -0.16913117468357086, 0.18337084352970123, 0.001569055370055139, 0.23570021986961365, -0.04725795239210129, 0.14550666511058807},{-0.05542368069291115, -0.40896040201187134, -0.2432856410741806, -0.14766432344913483, -0.07334698736667633, -0.04735269024968147, 0.032098352909088135, -0.07230200618505478, -0.09788178652524948, -0.0915471762418747, 0.0019603539258241653, -0.06187862157821655, -0.064571812748909, 0.035337235778570175, -0.03223100304603577, 0.016465460881590843, -0.01613336056470871, -0.25434088706970215, -0.1020665317773819, -0.19607090950012207, -0.12775425612926483, 0.03685149550437927, -0.06585643440485, -0.1202613115310669, -0.08751034736633301, -0.05379113182425499, 0.12186961621046066, 0.18369251489639282, 0.01884944550693035, 0.12134259939193726, 0.01311658788472414, 0.08726386725902557, 0.11372833698987961, -0.08564475178718567, 0.03257482498884201, -0.0758771300315857, -0.17734307050704956, -0.09644454717636108, -0.04998190701007843, -0.030534856021404266, -0.0952719897031784, 0.03332154080271721, 0.34906885027885437, -0.2674608826637268, 0.03727218136191368, 0.5346455574035645, -0.34321048855781555, -0.1411353349685669, -0.1597306728363037, 0.11032789945602417, -0.11773591488599777},{-0.13042134046554565, 0.12577418982982635, 0.081573985517025, -0.050789639353752136, 0.042074382305145264, -0.1498979777097702, 0.07384026795625687, -0.17575237154960632, 0.02411825768649578, -0.1037413477897644, -0.0019454328576102853, 0.030064616352319717, 0.020867377519607544, -0.06400443613529205, 0.037491895258426666, 0.08957798779010773, 0.10592963546514511, 0.10839715600013733, 0.0665380209684372, 0.04085209593176842, -0.03096967749297619, 0.11418977379798889, -0.04986050724983215, -0.0940837636590004, 0.06947807967662811, 0.09979056566953659, -0.0012683002278208733, 0.006970776244997978, -0.12118900567293167, 0.004757399670779705, 0.10743311792612076, -0.0032790747936815023, -0.005865270271897316, 0.12130140513181686, -0.10355228930711746, 0.044248610734939575, 0.149640291929245, 0.09198075532913208, -0.007825393229722977, -0.019622687250375748, 0.057123005390167236, 0.007922161370515823, -0.0736318901181221, 0.041533343493938446, 0.13061629235744476, -0.11351990699768066, 0.007395374588668346, 0.09704888612031937, -0.05461945757269859, 0.09945522248744965, 0.14527195692062378},{0.0018437597900629044, -0.2175130993127823, -0.0928693488240242, -0.23363855481147766, -0.028048863634467125, -0.10983911156654358, -0.16448929905891418, -0.057731740176677704, -0.11410727351903915, 0.02643706277012825, 0.2473769336938858, 0.14491282403469086, -0.10207630693912506, -0.15346641838550568, -0.13075704872608185, -0.1518060714006424, -0.06350386142730713, -0.21108518540859222, -0.3564848005771637, 0.14096680283546448, -0.3930334150791168, -0.19425158202648163, -0.14248578250408173, -0.133294016122818, -0.14636698365211487, 0.00875529833137989, -0.0020528780296444893, 0.1684650331735611, -0.08705183118581772, 0.17269600927829742, -0.1595129370689392, -0.10960356146097183, 0.07995443046092987, 0.006596013437956572, -0.0566401369869709, 0.0770072266459465, 0.21703515946865082, 0.04987504705786705, 0.0361170619726181, 0.0736234113574028, 0.10559524595737457, 0.1795765608549118, 0.6254820227622986, -0.05162588879466057, -0.15399320423603058, 0.45646190643310547, -0.23914581537246704, -0.08547517657279968, 0.16178078949451447, 0.05679955706000328, 0.2073279470205307},{-0.17539381980895996, 0.24874943494796753, 0.03633333742618561, -0.32658106088638306, -0.07082410156726837, -0.2565634548664093, -0.22059911489486694, -0.31540706753730774, -0.08363105356693268, 0.12564459443092346, 0.13263261318206787, 0.1632889211177826, -0.10406792163848877, -0.26223331689834595, -0.24333319067955017, -0.23306488990783691, -0.2407587766647339, -0.03595956787467003, 0.07654412090778351, 0.04154321551322937, -0.11126444488763809, 0.019328854978084564, -0.11236705631017685, -0.17955991625785828, -0.17242978513240814, -0.026946866884827614, -0.09315621852874756, 0.08066756278276443, 0.12846176326274872, -0.04539978876709938, -0.11515846848487854, -0.12095222622156143, -0.14748547971248627, -0.18457579612731934, -0.07580053806304932, 0.049185529351234436, -0.010012643411755562, 0.05025472491979599, 0.00463820667937398, 0.10232935100793839, 0.10194755345582962, 0.029385725036263466, -0.36750268936157227, 0.32906126976013184, 0.03085601143538952, -0.09145264327526093, 0.24489127099514008, 0.21822915971279144, -0.024235209450125694, 0.18416796624660492, 0.15776818990707397},{-0.1586807519197464, 0.196379154920578, 0.12741295993328094, -0.06237244978547096, 0.03175758570432663, -0.06571148335933685, -0.02428659051656723, -0.08632548153400421, 0.17126858234405518, 0.0831286758184433, 0.03143053874373436, -0.07122400403022766, -0.16470181941986084, -0.011198906227946281, 0.15975870192050934, -0.15682604908943176, -0.11349909007549286, 0.055104199796915054, 0.013137072324752808, -0.0885021910071373, -0.009983262047171593, 0.055514145642519, -0.06443450599908829, -0.022004202008247375, -0.009945043362677097, 0.09969066083431244, 0.09471867978572845, 0.06152360141277313, -0.025029463693499565, 0.02600323036313057, 0.054690971970558167, 0.05456399545073509, 0.04079553112387657, -0.05668780207633972, -0.05109170451760292, 0.1081085056066513, 0.14879339933395386, -0.022563746199011803, -0.054732948541641235, -0.04607053101062775, 0.11757078766822815, 0.01671268418431282, 0.024726977571845055, -0.0381331704556942, -0.13612724840641022, -0.08345799893140793, -0.14527632296085358, -0.14393290877342224, 0.18038657307624817, 0.1186700239777565, 0.10670274496078491},{0.20173916220664978, 0.9926607608795166, 0.5045392513275146, 0.906399130821228, 0.0718403309583664, 0.5603637099266052, 0.7436178922653198, -0.06518784910440445, -0.16335192322731018, 0.2792201638221741, -0.33431199193000793, -0.7501505017280579, 0.4664822518825531, -0.16928862035274506, 0.3613182306289673, 0.39882299304008484, 0.12374560534954071, 0.6738911867141724, -0.12251298129558563, -0.07734829932451248, 0.03698738291859627, -0.4613397419452667, 0.28698837757110596, 0.32759109139442444, -0.5204083919525146, 0.010389306582510471, -0.006900048814713955, 0.2033766508102417, -0.21337008476257324, -0.6345888376235962, -0.22351868450641632, 0.2678026258945465, 0.27100738883018494, -0.4341735541820526, 0.04950035735964775, 0.30377936363220215, -0.045896876603364944, -0.12458997219800949, -0.18057484924793243, -0.034375496208667755, -0.020365040749311447, -0.025724848732352257, 0.2180355191230774, 0.061722129583358765, -0.425331175327301, 0.26829254627227783, 0.2545800507068634, -0.44274675846099854, 0.0025203998666256666, -0.12318096309900284, -0.16089290380477905},{0.23915593326091766, 0.6882444620132446, 0.33739346265792847, 0.5360840559005737, -0.24215087294578552, -0.0714675635099411, 0.45292598009109497, -0.11822377890348434, -0.20541803538799286, 0.13695088028907776, -0.1403784602880478, -0.2685350179672241, 0.3438089191913605, -0.4066772162914276, -0.3107908368110657, 0.12243010848760605, 0.20519773662090302, 0.44156280159950256, -0.02330273576080799, -0.17631570994853973, 0.07053225487470627, 0.08708921819925308, 0.0023013658355921507, -0.24037398397922516, -0.22442927956581116, -0.055160656571388245, -0.024546073749661446, -0.17583107948303223, 0.06321796029806137, -0.1506858468055725, 0.09644075483083725, -0.16111306846141815, -0.15070225298404694, -0.049082815647125244, -0.049705278128385544, -0.17657184600830078, -0.03841312602162361, -0.08365483582019806, -0.19835135340690613, -0.17318500578403473, -0.14600057899951935, -0.14113332331180573, 0.34624791145324707, 0.6007996201515198, 0.19805091619491577, 0.5492205619812012, 0.6394485235214233, 0.3372972011566162, -0.27122750878334045, -0.09597433358430862, -0.2637653052806854},{-0.041352566331624985, 0.10751058906316757, 0.10621780902147293, 0.12362124770879745, 0.06082220375537872, -0.05061642453074455, -0.03500623255968094, 0.18190085887908936, 0.19577135145664215, 0.035573169589042664, 0.038708992302417755, -0.13031427562236786, 0.06670230627059937, 0.19555822014808655, 0.06896940618753433, -0.04449906572699547, -0.07986180484294891, 0.1709522157907486, 0.08233805000782013, 0.05289941653609276, 0.053517553955316544, 0.19608238339424133, 0.09657805413007736, -0.06723389774560928, -0.0052964529022574425, -0.04039784148335457, 0.062147658318281174, 0.014402750879526138, -0.14728163182735443, -0.19119416177272797, 0.002231088001281023, 0.017649415880441666, 0.040364958345890045, 0.11452003568410873, 0.1270025223493576, 0.13481633365154266, 0.16200849413871765, -0.04661896452307701, 0.13999396562576294, 0.16283853352069855, -0.02965509705245495, -0.022672997787594795, -0.0787581354379654, 0.01957874745130539, -0.019479891285300255, 0.05389786511659622, 0.042000662535429, -0.06822479516267776, 0.13995613157749176, 0.15760749578475952, 0.12500642240047455},{0.26287761330604553, 0.7212547063827515, 0.36609983444213867, 0.3461208939552307, 0.15754202008247375, -0.026818683370947838, 0.6128301024436951, 0.10717753320932388, -0.2175639569759369, -0.057776033878326416, -0.24648459255695343, -0.241977721452713, 0.6232392191886902, -0.06120823323726654, 0.01294516958296299, 0.15421710908412933, 0.2029600739479065, 0.348662793636322, -0.06055464968085289, 0.03439462557435036, 0.2992488443851471, 0.21186020970344543, 0.006145988591015339, -0.18538060784339905, -0.08136159926652908, -0.04272010549902916, 0.027239173650741577, -0.2485550194978714, -0.0668720155954361, -0.1321592628955841, 0.16734400391578674, -0.12363755702972412, -0.12169132381677628, 0.17444775998592377, -0.17734113335609436, -0.1580881029367447, -0.09388595074415207, -0.3320736587047577, -0.28531426191329956, -0.07132167369127274, -0.16570962965488434, -0.31602466106414795, 0.30650418996810913, 0.401552677154541, 0.08744154870510101, 0.30638599395751953, 0.3775325417518616, -0.02221440151333809, -0.24273139238357544, -0.3505077660083771, -0.07068057358264923},{-0.17137566208839417, -0.0783451646566391, -0.18721362948417664, 0.016952870413661003, 0.13343070447444916, -0.04671020060777664, -0.0017283614724874496, 0.09126503765583038, 0.03246811404824257, -0.0988139882683754, -0.136836439371109, -0.17907258868217468, -0.03215254470705986, 0.1430310755968094, -0.07836922258138657, 0.01128679420799017, -0.06945797055959702, 0.08068448305130005, 0.04211849346756935, 0.014589223079383373, 0.07354075461626053, -0.05785704776644707, 0.06913856416940689, 0.03861043602228165, -0.07258588820695877, 0.06941244751214981, -0.03335488960146904, 0.019601482897996902, 0.00607786001637578, -0.0911383181810379, 0.18780039250850677, 0.048534877598285675, 0.08103203028440475, -0.02691524103283882, 0.11691045016050339, 0.011055560782551765, 0.16984118521213531, 0.08233295381069183, 0.14528964459896088, 0.19791479408740997, 0.16627556085586548, 0.1762821227312088, 0.06648494303226471, -0.01210164837539196, -0.14218172430992126, 0.04318036884069443, 0.11030960828065872, -0.15430478751659393, 0.13404160737991333, -0.05180568993091583, 0.14622965455055237},{-0.14224828779697418, -0.5368406772613525, -0.10495078563690186, -0.38932502269744873, -0.024079792201519012, -0.07928182929754257, -0.39204660058021545, -0.14367613196372986, -0.054002244025468826, 0.07536019384860992, 0.1037747785449028, 0.21337537467479706, -0.4251280426979065, -0.12450295686721802, -0.018183179199695587, -0.015886375680565834, -0.2751491367816925, -0.20557916164398193, 0.022456031292676926, 0.10533478111028671, -0.12886343896389008, -0.10269183665513992, -0.1992984563112259, -0.031862832605838776, -0.07114419341087341, -0.1748378574848175, 0.021558918058872223, 0.11729966849088669, 0.10042672604322433, 0.10083082318305969, -0.30300503969192505, 0.05376555025577545, -0.14994196593761444, -0.24389567971229553, -0.0644855946302414, -0.0779930055141449, 0.037653956562280655, 0.038927238434553146, -0.007053833454847336, 0.11291459947824478, 0.037952348589897156, 0.06692963093519211, -0.17836366593837738, 0.13681422173976898, -0.4164026975631714, -0.23414890468120575, 0.0951533243060112, -0.37347501516342163, 0.15686246752738953, -0.017026813700795174, -0.05260452628135681},{-0.2438887655735016, -0.7213321328163147, -0.35324159264564514, -0.40601956844329834, 0.15115775167942047, 0.060716234147548676, -0.43404334783554077, 0.06608506292104721, -0.07811713963747025, -0.07622749358415604, 0.2867528200149536, 0.17680133879184723, -0.546429455280304, 0.24491868913173676, -0.05912190303206444, 0.02142169140279293, -0.3019563555717468, -0.33711403608322144, -0.06706400960683823, 0.2737686038017273, 0.006149133667349815, -0.06088661029934883, 0.059324465692043304, 0.03061918169260025, -0.13592323660850525, -0.1708599179983139, 0.0841589868068695, 0.19585052132606506, 0.06705045700073242, 0.4488682746887207, -0.30147188901901245, 0.09270700812339783, 0.13835565745830536, -0.25767672061920166, -0.15530925989151, -0.07657602429389954, -0.05713778734207153, 0.16689227521419525, 0.04530736431479454, 0.10961435735225677, -0.030255639925599098, 0.0806744322180748, -0.09451606124639511, -0.514259934425354, -0.26030081510543823, 0.06146186217665672, -0.5570199489593506, -0.18301862478256226, 0.1489410102367401, -0.04676946997642517, 0.10994642227888107},{0.28031498193740845, -0.03868817538022995, -0.10932648181915283, 0.2671676576137543, 0.2819938063621521, 0.025571713224053383, 0.34185901284217834, 0.08194849640130997, 0.11513695120811462, -0.07819142937660217, -0.06017602980136871, -0.013293895870447159, 0.15396620333194733, 0.18264140188694, 0.16090144217014313, 0.09599870443344116, 0.030697911977767944, 0.029589934274554253, -0.07970340549945831, -0.20377179980278015, 0.1074051782488823, -0.15954479575157166, -0.11514168977737427, -0.1262408196926117, -0.0771125927567482, 0.0037449661176651716, 0.1732100248336792, -0.02519288659095764, 0.02323051728308201, -0.06095576658844948, -0.05619744583964348, -0.0950399786233902, 0.008275909349322319, 0.019140517339110374, -0.06533066928386688, -0.0783255398273468, -0.12343103438615799, -0.19621871411800385, -0.18068554997444153, -0.03320356085896492, -0.2911152243614197, -0.21054579317569733, 0.36164918541908264, -0.18963198363780975, -0.03428123891353607, 0.21069107949733734, -0.24934832751750946, -0.12121319025754929, -0.15461038053035736, -0.24921345710754395, -0.10448332130908966},{-0.4124823212623596, 0.3422659635543823, 0.28198185563087463, -0.012993990443646908, -0.1193809062242508, 0.10976622253656387, -0.10870049893856049, 0.11564145982265472, 0.19481950998306274, -0.1628997027873993, 0.10932070761919022, -0.01848587580025196, -0.13167285919189453, -0.009396450594067574, 0.008524153381586075, 0.07188799232244492, -0.07833679765462875, 0.01320112869143486, 0.4895237982273102, -0.18158817291259766, 0.16141365468502045, 0.09000285714864731, -0.1399153172969818, -0.007472115568816662, -0.04631081968545914, 0.09823421388864517, 0.13468295335769653, -0.010114350356161594, -0.09765705466270447, -0.133933424949646, 0.10165424644947052, -0.1095515638589859, 0.11585152894258499, 0.05278673768043518, 0.04828204959630966, -0.057297077029943466, 0.32687464356422424, 0.1414087861776352, 0.19331441819667816, 0.223622128367424, -0.01584947109222412, 0.2331680953502655, -0.0679829940199852, 0.11736786365509033, 0.04409487172961235, -0.1605963259935379, 0.016533855348825455, 0.04243206977844238, 0.34203842282295227, 0.14648805558681488, 0.1866014152765274},{0.07009246200323105, -0.007419886067509651, -0.06679084151983261, 0.038982093334198, -0.06598024815320969, 0.17393602430820465, 0.15980513393878937, 0.11122985929250717, 0.027559082955121994, 0.0001824260107241571, -0.05122590437531471, -0.023904716596007347, 0.11264877766370773, 0.159176766872406, 0.041538335382938385, -0.012895253486931324, -0.04374830797314644, 0.11311040818691254, -0.027620721608400345, 0.06461779028177261, 0.05598725751042366, 0.1119823232293129, 0.17252644896507263, -0.03560708835721016, -0.048116132616996765, -0.04236920550465584, -0.05018003284931183, -0.097034752368927, -0.010848570615053177, -0.07964979112148285, 0.11500803381204605, 0.041078463196754456, 0.12402024120092392, -0.018447184935212135, 0.0838853269815445, -0.003885869402438402, 0.08388248831033707, 0.1516111195087433, 0.19980119168758392, 0.01837160997092724, 0.1233278289437294, 0.11606234312057495, 0.07456282526254654, -0.10392529517412186, 0.07012619823217392, -0.041166119277477264, 0.030233753845095634, 0.06139528751373291, 0.06608008593320847, 0.10253632068634033, 0.028022317215800285},{0.014022921212017536, -0.657467246055603, -0.2872389554977417, -0.18090762197971344, 0.09579238295555115, 0.0446108877658844, -0.3153744637966156, 0.017828524112701416, 0.018061093986034393, 0.09046152234077454, -0.02304231747984886, 0.19992738962173462, -0.09903179854154587, 0.11938408017158508, -0.07048642635345459, -0.05291382968425751, -0.12038376927375793, -0.3553192615509033, -0.19976402819156647, 0.1843171864748001, -0.04736731946468353, -0.131768599152565, 0.15519317984580994, 0.08948774635791779, -0.11992032080888748, -0.1393718123435974, 0.08198396116495132, 0.0878889188170433, 0.032833464443683624, 0.2142791599035263, -0.20965935289859772, 0.17119525372982025, -0.09686330705881119, -0.019900334998965263, 0.009512129239737988, -0.12171704322099686, -0.007227861788123846, 0.11555841565132141, -0.011931248940527439, 0.018937723711133003, 0.1276179850101471, -0.05336304381489754, 0.26713794469833374, -0.45897722244262695, 0.004119232762604952, 0.46092644333839417, -0.39015913009643555, 0.14160355925559998, -0.1256648749113083, -0.060466136783361435, -0.03878970816731453},{0.017885364592075348, 0.1674552708864212, -0.05001217871904373, -0.047857239842414856, 0.092154860496521, 0.1083814799785614, 0.03756408765912056, 0.010539625771343708, 0.07067204266786575, -0.15534000098705292, -0.09005241841077805, -0.01323858741670847, 0.15308640897274017, -0.014867264777421951, -0.040523502975702286, 0.21446987986564636, -0.04440292343497276, -0.019511345773935318, 0.058256082236766815, -0.05613669380545616, 0.12618474662303925, 0.10274477303028107, 0.12643949687480927, -0.01782427914440632, 0.011393905617296696, -0.039714787155389786, 0.11904348433017731, -0.014957897365093231, -0.18256652355194092, -0.058677926659584045, 0.1703980714082718, 0.17938049137592316, -0.0761820450425148, 0.11524901539087296, 0.019200654700398445, 0.03228310868144035, -0.044323187321424484, 0.18814535439014435, 0.055463604629039764, -0.0013874368742108345, 0.011367298662662506, 0.0877113938331604, -0.034994564950466156, 0.18784905970096588, -0.04716986045241356, -0.004382689017802477, -0.03758649900555611, 0.0682082250714302, 0.05156315863132477, 0.01886308752000332, 0.06366710364818573},{-0.02998102828860283, 0.07298018038272858, 0.11377181857824326, -0.08879494667053223, -0.1455315798521042, -0.05066028982400894, -0.033539507538080215, -0.10285942256450653, 0.08071907609701157, 0.07472439110279083, 0.19707147777080536, 0.09975451976060867, 0.11532331258058548, -0.10951704531908035, 0.05047004669904709, -0.11593397706747055, 0.10678941756486893, -0.18235205113887787, 0.5008277893066406, -0.07256864011287689, 0.09930746257305145, 0.06632569432258606, 0.013337344862520695, 0.008075106889009476, 0.08373242616653442, -0.03154102340340614, -0.04308805614709854, -0.014591796323657036, -0.045783765614032745, 0.14402471482753754, 0.10363926738500595, -0.19046363234519958, -0.19121815264225006, -0.1052846908569336, -0.2503516674041748, -0.1037442684173584, 0.07915017008781433, -0.06393249332904816, -0.04587036371231079, -0.08220810443162918, -0.08438955992460251, 0.1141168475151062, -1.271932601928711, -0.03856240585446358, 0.04220367968082428, -1.2175524234771729, 0.10209915041923523, -0.04287463799118996, 0.16466206312179565, -0.12949541211128235, 0.10841849446296692},{-0.014403333887457848, 0.034602295607328415, 0.0019709947519004345, -0.32809507846832275, -0.23980791866779327, -0.11960340291261673, -0.3996102809906006, -0.3036636710166931, -0.20472906529903412, 0.017723236232995987, 0.022575097158551216, 0.21814259886741638, -0.15750761330127716, -0.2546548545360565, -0.01134219579398632, -0.17595817148685455, -0.2013278603553772, 0.06515616178512573, 0.26565515995025635, -0.058306194841861725, -0.030213570222258568, -0.10638552904129028, -0.05245748907327652, -0.2286272495985031, -0.06326502561569214, 0.01329814549535513, -0.1762457937002182, -0.024357153102755547, 0.13679490983486176, -0.05477392300963402, -0.20052513480186462, -0.13705013692378998, -0.11918874830007553, -0.06829442828893661, -0.240653857588768, 0.006521584000438452, 0.0947214663028717, 0.0007531666196882725, -0.047906503081321716, 0.04667453095316887, 0.1535479873418808, 0.05262363702058792, -0.40611737966537476, 0.3606504797935486, 0.01871722936630249, -0.4001763164997101, 0.30582794547080994, 0.171259343624115, 0.12552383542060852, 0.030348550528287888, -0.07393039017915726},{0.16056837141513824, 0.35407304763793945, 0.06754833459854126, 0.040474604815244675, 0.11726032942533493, 0.02051476389169693, 0.22144819796085358, 0.17684683203697205, -0.009479742497205734, 0.04700830206274986, -0.09521666169166565, 0.01477197464555502, 0.0764404833316803, -0.003121532965451479, -0.09065648913383484, -0.018674511462450027, 0.12921519577503204, 0.11968772113323212, -0.06802384555339813, -0.18067394196987152, 0.11547353863716125, -0.04025200381875038, 0.030573667958378792, -0.09258434921503067, -0.036906708031892776, 0.08021961152553558, 0.05087795481085777, -0.08606070280075073, -0.08290137350559235, 0.10044880956411362, 0.0919426679611206, 0.054842300713062286, -0.07209579646587372, -0.13451120257377625, -0.07313418388366699, -0.16854213178157806, -0.0959504023194313, 0.010291790589690208, -0.18977192044258118, -0.06620709598064423, -0.06534726172685623, -0.07047207653522491, 0.5959965586662292, -0.24855349957942963, -0.056234728544950485, 0.37873542308807373, -0.00238379486836493, -0.03192804008722305, -0.0939684510231018, -0.1787661761045456, -0.18588010966777802},{0.005029673688113689, -0.770979106426239, -0.5030688643455505, -0.36232998967170715, 0.25475800037384033, 0.2759155333042145, -0.15349081158638, 0.2872673571109772, 0.15180616080760956, -0.2610161006450653, 0.11150405555963516, 0.12659135460853577, -0.26903432607650757, 0.22070132195949554, 0.17060677707195282, 0.026410194113850594, -0.2952645421028137, -0.4229666292667389, 0.04405646771192551, -0.2113499939441681, -0.024867983534932137, -0.07232756167650223, 0.09621869772672653, 0.19146855175495148, 0.22936013340950012, -0.12739476561546326, 0.007803897839039564, 0.18877673149108887, 0.218135803937912, 0.13935363292694092, 0.004036500118672848, 0.06505479663610458, 0.2800770103931427, -0.07684305310249329, 0.09409487992525101, -0.039404504001140594, -0.055681630969047546, -0.07882754504680634, -0.003977388143539429, -0.07152611017227173, -0.04476585611701012, -0.22552534937858582, 0.24701529741287231, -0.5368319749832153, -0.21530762314796448, 0.29714369773864746, -0.5420995950698853, -0.2855284512042999, -0.1686825305223465, -0.014193631708621979, -0.28025078773498535},{0.16005085408687592, 0.7157707214355469, 0.37831002473831177, 0.0842941626906395, -0.3560473918914795, -0.5112910866737366, -0.16134527325630188, -0.379145085811615, -0.2987575829029083, 0.2977115213871002, 0.2601727545261383, 0.138272225856781, 0.19329117238521576, -0.5381967425346375, -0.4067908525466919, -0.28279832005500793, -0.100027896463871, -0.033013395965099335, 0.14998427033424377, -0.11339222639799118, -0.020787116140127182, 0.18136826157569885, -0.2820943593978882, -0.3480563461780548, -0.01157477404922247, -0.16768698394298553, -0.14867272973060608, -0.12462759017944336, -0.04633111506700516, 0.06853821128606796, 0.23133166134357452, -0.33839020133018494, -0.15529008209705353, 0.05422906205058098, -0.13206224143505096, -0.08945892006158829, -0.08238312602043152, 0.0399363674223423, 0.030298003926873207, -0.1391570270061493, -0.1135510578751564, 0.07601037621498108, -0.08173862844705582, 0.5542435646057129, 0.5946071147918701, -0.2036910206079483, 0.6231589913368225, 0.5065661072731018, 0.07375665754079819, -0.020318374037742615, -0.029270166531205177},{-0.005423457827419043, 0.17810502648353577, 0.222066730260849, -0.13776099681854248, -0.1429738849401474, -0.20882628858089447, -0.31736746430397034, -0.31577229499816895, -0.03602801635861397, 0.11335887014865875, 0.2560458481311798, 0.23001448810100555, -0.13198451697826385, -0.1494321972131729, -0.2334723323583603, -0.20852208137512207, -0.1612091064453125, 0.10433155298233032, 0.35276004672050476, -0.17849516868591309, -0.08909285068511963, -0.059393830597400665, -0.20049436390399933, -0.21016882359981537, -0.12147683650255203, -0.11134859919548035, -0.2391112744808197, 0.04871825501322746, 0.14551591873168945, 0.08574257791042328, -0.19451306760311127, -0.2002505660057068, -0.18949420750141144, -0.11698470264673233, -0.19963309168815613, -0.1553325355052948, -0.014902639202773571, 0.04684968292713165, 0.12246706336736679, -0.0031103380024433136, 0.1704990565776825, -0.019667984917759895, -0.30845344066619873, 0.26635491847991943, 0.19101011753082275, -0.38861724734306335, 0.2720479369163513, 0.12120092660188675, 0.010321433655917645, 0.07178439199924469, 0.17686015367507935},{-0.20366014540195465, -0.010110144503414631, 0.21220438182353973, 0.06904961168766022, 0.03171708807349205, -0.018276765942573547, 0.052616339176893234, -0.043517161160707474, -0.01641290821135044, 0.07804607599973679, -0.014397741295397282, 0.010721400380134583, 0.14401231706142426, -0.059474822133779526, 0.010999017395079136, -0.03945543244481087, 0.011460176669061184, -0.028629761189222336, 0.17510779201984406, -0.035721730440855026, 0.028046710416674614, 0.1621270328760147, 0.059764135628938675, -0.004684047773480415, 0.1352321207523346, 0.09104084968566895, -0.0738283023238182, 0.09912045300006866, -0.11871269345283508, 0.07985289394855499, 0.170768141746521, 0.04521007090806961, 0.050481151789426804, 0.11207658052444458, 0.02977459877729416, 0.13763897120952606, 0.0873241126537323, 0.20745854079723358, 0.3059283494949341, 0.20878362655639648, 0.11806417256593704, 0.22632165253162384, -0.055675335228443146, -0.012069878168404102, 0.2025078386068344, -0.06587284803390503, -0.03875921666622162, 0.11560357362031937, 0.24681095778942108, 0.1337466686964035, 0.18889527022838593},{-0.04499001055955887, 0.0918114110827446, -0.03303001821041107, 0.012302117422223091, -0.21312525868415833, -0.05468329042196274, -0.023596767336130142, -0.1960240602493286, 0.07861103117465973, 0.0009500414016656578, 0.0777205228805542, -0.006927033420652151, -0.017340146005153656, -0.17752723395824432, -0.060567837208509445, 0.013637700118124485, -0.030337264761328697, 0.08383256942033768, 0.056524764746427536, 0.03501557186245918, 0.017979316413402557, 0.09968794882297516, -0.000720311829354614, 0.16985726356506348, 0.1450948268175125, 0.03217151015996933, 0.025105919688940048, -0.015473184175789356, -0.039799220860004425, -0.004068976268172264, 0.003958356566727161, 0.04218361899256706, -0.048846375197172165, 0.08674943447113037, 0.12783560156822205, 0.10503165423870087, 0.07615084946155548, -0.049742165952920914, 0.03887456655502319, -0.042256902903318405, 0.2051980197429657, 0.21124109625816345, -0.07661585509777069, 0.0721665769815445, 0.14317743480205536, -0.11175897717475891, -0.0012575211003422737, 0.2112145721912384, 0.14850908517837524, 0.210408017039299, -0.03432578593492508}};

const float l2_weights[NUM_CLASSES][HIDDEN_SIZE] = {{0.19632971286773682, 0.20881754159927368, 0.1679706573486328, -0.34794965386390686, 0.14267192780971527, 0.0037574709858745337, 0.48358169198036194, -0.016382621601223946, -0.1275106966495514, 0.052236635237932205, -0.4002781808376312, 0.08119978755712509, -0.06260694563388824, -0.5382590293884277, -0.47201764583587646, -0.35420647263526917, 0.006844094954431057, -0.09992868453264236, -0.6950114369392395, -0.24935534596443176, 0.31001198291778564, -0.10277906805276871, -0.026099756360054016, -0.00043433596147224307, 0.27804994583129883, -0.212284654378891, -0.08307051658630371, -0.00844124611467123, 0.0910044014453888, -0.2344367504119873, 0.25618207454681396, -0.4000321924686432, 0.09576091915369034, 0.1978330761194229, 0.0403096005320549, 0.19831891357898712, -0.13561157882213593, 0.29863420128822327, -0.3038958013057709, -0.43433877825737, -0.19471873342990875, -0.11772601306438446, -0.05376246199011803, -0.23856188356876373, 0.016983387991786003, 0.31726399064064026, 0.3087240159511566, 0.2977118194103241, 0.011733496561646461, 0.2317318320274353, -0.3091854751110077, 0.010951818898320198, -0.12614955008029938, 0.21467728912830353, -0.04161706194281578, -0.20433862507343292, -0.6990081071853638, 0.01875823736190796, -0.23835504055023193, -0.03764019161462784, 0.1407003551721573, 0.10570111870765686, -0.30261853337287903, 0.19237011671066284, -0.011989927850663662, -0.24471160769462585, -0.04498037323355675, 0.5697813630104065, 0.18741197884082794, -0.24106673896312714, -0.2533046007156372, 0.13437139987945557, 0.10069413483142853, 0.03913676738739014, -0.08239079266786575},{-0.25289762020111084, 0.00013535210746340454, -0.4754002094268799, 0.12143956869840622, -0.05764726921916008, -0.08416619151830673, -0.4280034899711609, 0.016439009457826614, 0.21574269235134125, 0.05322890356183052, -0.21047548949718475, 0.038205765187740326, -0.1695207804441452, -0.2502274811267853, 0.34236761927604675, 0.16524405777454376, 0.13589881360530853, -0.0457947663962841, -0.10598021745681763, -0.504047691822052, -0.4321914613246918, 0.31222110986709595, -0.011560745537281036, -0.0916525349020958, -0.3287109434604645, 0.11096977442502975, -0.4083838164806366, 0.011740353889763355, 0.14487171173095703, -0.6233809590339661, -0.16517533361911774, 0.16342520713806152, 0.1526229977607727, -0.0699399933218956, 0.07996056228876114, -0.034361567348241806, 0.28909510374069214, -0.1017947643995285, 0.34785038232803345, -0.06782855838537216, 0.0075515685603022575, 0.3024539649486542, -0.07510630041360855, 0.13328924775123596, -0.031256236135959625, -0.2640381157398224, -0.20084801316261292, -0.12518134713172913, -0.49577274918556213, -0.3336047828197479, 0.14936476945877075, 0.038046371191740036, 0.358250230550766, 0.14436838030815125, -0.07942815870046616, -0.10350536555051804, -0.10162786394357681, -0.0396067276597023, -0.48105427622795105, 0.02456515282392502, 0.10235894471406937, 0.15344177186489105, -0.1484648436307907, -0.21961280703544617, -0.01718810386955738, 0.2514576315879822, -0.0555398091673851, -0.4879915416240692, 0.038447778671979904, 0.09898450970649719, -0.06698079407215118, 0.05858365446329117, -0.030673528090119362, -0.05663088709115982, -0.1944630891084671},{-0.6145719885826111, -0.358685702085495, -0.6238816976547241, 0.06949204206466675, -0.37829557061195374, 0.0787203311920166, 0.08935079723596573, 0.03407967463135719, -0.3680292069911957, 0.00039960601134225726, 0.0034752609208226204, -0.2615914046764374, 0.8338547348976135, 0.5347514748573303, 0.35795921087265015, -0.030371256172657013, 0.03525048494338989, -0.13243110477924347, 0.7392479181289673, 0.4767102301120758, -0.2566133737564087, -0.2363601177930832, 0.029305826872587204, -0.06294029206037521, 0.19008243083953857, 0.08548479527235031, -0.07392477244138718, 0.08064530044794083, -0.3206310570240021, 0.252975732088089, 0.4377765655517578, 0.1628757268190384, -0.11337345838546753, -0.20057988166809082, -0.38579773902893066, 0.11470261961221695, -0.18867912888526917, 0.030550500378012657, -0.2705690562725067, 0.14176952838897705, 0.3500523567199707, -0.22337879240512848, -0.138686865568161, -0.2455926388502121, -0.015627814456820488, -0.004587444011121988, -0.1722971647977829, -0.16933877766132355, -0.014884150587022305, 0.017253916710615158, 0.031704131513834, -0.09661135077476501, -0.14199833571910858, -0.19220761954784393, 0.015129532665014267, 0.861530065536499, 0.376915842294693, -0.16701683402061462, 0.36032769083976746, -0.12799757719039917, -0.3020077049732208, -0.31751376390457153, 0.225517138838768, 0.0023429826833307743, 0.04863996058702469, -0.02277885004878044, 0.026260485872626305, -1.2032485008239746, -0.2074701339006424, 0.22996917366981506, -0.16948610544204712, 0.3102666735649109, -0.2009160965681076, -0.03708204999566078, 0.018211115151643753},{0.5201941132545471, -0.0826212540268898, 0.615973949432373, 0.19455014169216156, 0.38664814829826355, -0.002890244359150529, -0.06263502687215805, -0.14114442467689514, 0.2836728096008301, -0.09151975810527802, 0.36214113235473633, -0.258794903755188, -0.5736120939254761, -0.2608998417854309, -0.25203004479408264, 0.12008362263441086, 0.023916514590382576, -0.16111654043197632, -0.6315959692001343, -0.25956323742866516, -0.1352589875459671, -0.20562744140625, 0.04759576916694641, -0.011282498016953468, -0.10308226943016052, 0.27427971363067627, 0.3482218384742737, -0.01785951294004917, -0.25051820278167725, 0.06475064903497696, -0.48739996552467346, -0.004409645684063435, -0.1909656971693039, -0.38034313917160034, 0.041584644466638565, -0.4142778217792511, -0.1974521279335022, -0.45940983295440674, -0.06211283057928085, 0.23274245858192444, -0.4838060736656189, 0.09239580482244492, -0.13101240992546082, 0.27779945731163025, -0.07176918536424637, -0.44484126567840576, -0.15322518348693848, -0.19686679542064667, 0.3872074782848358, -0.11819512397050858, 0.20070217549800873, 0.0008834773907437921, -0.018607761710882187, -0.2739681005477905, 0.0940629318356514, -0.7497360110282898, -0.24086014926433563, 0.023805638775229454, -0.10322407633066177, -0.0478069894015789, -0.1310814768075943, 0.09133816510438919, 0.2005952149629593, -0.05217745527625084, -0.1254866123199463, 0.30354130268096924, 0.029201766476035118, -0.24278897047042847, -0.2732979655265808, 0.16162109375, 0.3254392743110657, -0.5352410674095154, -0.38555845618247986, -0.006389993708580732, -0.00241346494294703},};

const float l1_bias[HIDDEN_SIZE] = {-0.04424605146050453, -0.034326307475566864, 0.00966589618474245, 0.07051553577184677, 0.11551403254270554, -0.13174092769622803, -0.07680048048496246, -0.13205930590629578, -0.06804034113883972, -0.11077140271663666, 0.11810951679944992, -0.09330100566148758, -0.06560121476650238, 0.05613795295357704, 0.11496438086032867, 0.16073110699653625, -0.09992007166147232, -0.14484986662864685, 0.15816567838191986, 0.18760983645915985, -0.003607837250456214, -0.13963410258293152, 0.01706024445593357, -0.100481316447258, 0.1344923973083496, -0.0329250805079937, 0.27538371086120605, -0.045115649700164795, 0.02672635391354561, 0.02531254291534424, 0.20519880950450897, 0.08839458227157593, -0.09713626652956009, 0.05172751843929291, 0.08306818455457687, -0.052168384194374084, -0.01808857172727585, 0.1442178338766098, -0.20806166529655457, 0.22370529174804688, 0.12376344949007034, -0.017805902287364006, -0.09539330750703812, -0.02498992346227169, -0.011908185668289661, 0.006795638706535101, 0.1535172164440155, 0.02546605095267296, 0.2799575626850128, 0.1110888347029686, -0.06770267337560654, -0.08207724243402481, -0.14737260341644287, -0.1515820324420929, -0.14503586292266846, 0.15029844641685486, 0.26212239265441895, -0.05119766294956207, 0.11449313163757324, -0.15124711394309998, -0.03481220453977585, -0.05237260460853577, 0.20976343750953674, -0.045873306691646576, -0.1245836615562439, -0.026223305612802505, -0.09978105127811432, 0.06771872192621231, -0.07395515590906143, 0.19834564626216888, 0.10450807213783264, 0.033681608736515045, -0.08226511627435684, -0.20575888454914093, 0.03666776791214943};

const float l2_bias[NUM_CLASSES] = {-0.07176487147808075, -0.18828947842121124, 0.09076915681362152, 0.03656230494379997};

void dense_relu_1(const float (&input)[INPUT_SIZE], float &output, const int index);
void dense_2(const float (&input)[HIDDEN_SIZE], float &output, const int index);
void inference(stream_io &s_axis, stream_io &m_axis);
